<?xml version="1.0"?>
<opencv_storage>
<my_svm type_id="opencv-ml-svm">
  <svm_type>C_SVC</svm_type>
  <kernel><type>LINEAR</type></kernel>
  <C>1.</C>
  <term_criteria><epsilon>2.2204460492503131e-16</epsilon>
    <iterations>10000</iterations></term_criteria>
  <var_all>61236</var_all>
  <var_count>61236</var_count>
  <class_count>2</class_count>
  <class_labels type_id="opencv-matrix">
    <rows>1</rows>
    <cols>2</cols>
    <dt>i</dt>
    <data>
      -1 1</data></class_labels>
  <sv_total>1</sv_total>
  <support_vectors>
    <_>
      2.04370287e-03 2.40528537e-03 5.53002930e-04 -1.41270843e-03
      -2.14798423e-03 -8.39967106e-04 -1.88467570e-03 -1.60925381e-03
      3.44914297e-04 8.33766186e-04 -1.66275771e-03 -2.52090325e-03
      -4.38713748e-03 -6.34520547e-03 -5.76790841e-03 -4.72966814e-03
      -2.77633080e-03 1.49244035e-03 4.34016855e-03 3.24695231e-03
      2.90297484e-03 4.33876994e-04 -6.62349805e-04 5.90323179e-04
      -1.44442613e-03 -2.16880930e-03 3.88219161e-03 5.49355615e-03
      1.68471131e-03 -1.76752161e-04 -1.80312118e-03 -3.28313815e-03
      -4.16618166e-03 -4.36871639e-03 -3.63222626e-03 2.27678288e-03
      -4.43895406e-04 -2.90258555e-03 -1.97893940e-03 -1.73916679e-03
      -1.42285449e-03 -3.86651070e-03 -1.60758325e-03 -1.18227990e-03
      1.50435069e-03 -5.53666987e-03 -6.33929484e-03 -4.17693937e-03
      -2.11432250e-03 -8.70487653e-04 -4.60790237e-03 -2.83112004e-03
      -2.25859694e-03 -1.33704406e-03 6.51964592e-03 -8.38496839e-04
      4.15527757e-04 -3.42486135e-04 -5.86802664e-04 -4.17162338e-03
      -1.12492999e-03 -9.82387806e-04 5.51260589e-03 4.96141799e-03
      1.82856777e-04 -1.25530001e-04 -2.88712722e-03 -3.22525389e-03
      -5.24679013e-03 -4.71683638e-03 -5.07509336e-04 3.85878910e-03
      -8.17645062e-03 -2.74458621e-03 -9.53651150e-04 3.69126879e-04
      2.11257231e-03 3.83647101e-04 9.42594997e-05 -3.69094341e-04
      -4.25699819e-03 -8.97662528e-03 -3.86930071e-04 -1.24221854e-03
      5.47725533e-04 3.21767200e-03 2.39582965e-03 1.99541729e-03
      -1.09185197e-03 -6.36660680e-03 1.90709042e-03 3.31218052e-03
      1.33111840e-03 2.63892493e-04 -1.19315453e-04 -1.59795105e-03
      -1.38608459e-03 1.56282180e-03 1.55382371e-03 -9.26241191e-05
      3.32565978e-03 2.00711004e-03 1.66039262e-03 3.46808694e-03
      5.07244084e-04 7.84274249e-04 1.63197203e-03 -9.23921703e-04
      -8.19199660e-04 1.74410921e-03 1.60230615e-03 9.43527615e-04
      9.95737035e-04 2.07093684e-03 -4.34548361e-04 -2.12425995e-03
      -1.27626164e-03 -1.31033870e-04 -4.53666435e-04 -1.14897429e-03
      -5.76742168e-04 -1.13878690e-03 -1.50645548e-03 -1.52635877e-03
      -3.85672366e-03 -9.67338128e-05 2.92083598e-04 2.51410599e-03
      2.01938907e-03 1.98546168e-03 -1.70406047e-03 1.57934579e-03
      2.08203658e-03 4.71242733e-04 8.27787269e-04 6.21665502e-04
      3.67391476e-04 -8.36154504e-04 -1.09496247e-03 -7.25777936e-04
      9.88913467e-04 -5.44249080e-04 -9.02033818e-04 2.60559213e-03
      1.86677254e-03 -2.71850592e-03 2.13511412e-05 3.41177569e-04
      6.60143502e-04 -2.28669611e-03 -9.44960746e-04 -1.24584651e-03
      1.05116318e-03 2.45755538e-03 -1.08112523e-03 1.06813248e-04
      -1.63628522e-03 -2.74390914e-03 -5.08916285e-03 -5.25555806e-03
      -2.09857081e-03 8.50481098e-04 1.41849893e-03 -1.99444382e-03
      -1.09556713e-03 -7.21669407e-04 2.73256795e-04 -5.34382067e-04
      1.73992797e-04 -1.50867901e-03 2.26385286e-03 2.00083572e-03
      -2.08902266e-03 -2.57464708e-03 1.05343887e-03 -1.10129418e-03
      -2.69174995e-03 -1.69178890e-03 -1.02852262e-03 2.23229965e-03
      1.37139750e-05 2.55478220e-03 1.57597591e-03 -4.11571178e-04
      -1.34122814e-03 -2.24188529e-03 -2.91230879e-03 -4.85937460e-04
      -1.30737375e-04 -1.39414985e-03 1.95634225e-03 1.60026783e-03
      -2.87522358e-04 -1.18339354e-04 4.54142835e-04 -1.18309422e-03
      -2.01962044e-04 -1.10416359e-03 1.99525757e-03 3.29857226e-04
      3.54637928e-06 1.41023158e-03 3.23477070e-05 -8.66143731e-04
      -8.26725620e-04 -1.40064876e-04 2.77523953e-03 7.93868676e-04
      2.17898004e-03 1.10585497e-04 1.05186400e-05 -7.17389281e-04
      1.17020356e-03 -7.39282230e-04 -1.22410140e-03 -1.07022794e-03
      1.46549148e-03 3.61335604e-03 4.10226407e-03 5.39126107e-03
      3.13657016e-04 1.55302766e-03 2.72982009e-03 -7.40347488e-04
      -3.01082735e-03 1.35105173e-03 2.55405135e-03 2.93546170e-03
      1.00199904e-05 -7.57822650e-04 6.99456723e-04 3.83086124e-04
      -1.73245149e-03 -1.49009097e-03 -5.51157631e-04 2.72146985e-03
      2.00918457e-03 5.65453945e-03 4.41463292e-03 3.81190004e-03
      3.01326183e-03 1.30003307e-03 -4.60445695e-03 -9.88645013e-04
      1.31472992e-03 2.30072974e-03 1.29001099e-03 1.31245889e-03
      -1.56633003e-04 1.21253438e-03 -1.07557978e-03 -4.21269098e-03
      3.75766284e-03 1.02108449e-03 1.52417086e-03 -1.01142155e-03
      7.28686864e-04 -7.13072877e-05 3.07683949e-04 -2.70764832e-03
      -7.47125188e-04 2.89180828e-03 6.79268211e-04 1.84192817e-04
      1.06537412e-03 8.37613596e-04 1.10087311e-03 -2.56274416e-05
      -2.89557502e-03 -6.90303250e-06 7.25013029e-04 2.07672059e-03
      1.52894855e-03 -1.48415472e-03 1.70251133e-03 -1.49482512e-03
      -4.92021558e-04 -2.37078522e-03 -3.06295045e-03 1.08202570e-04
      9.42088431e-04 -1.27637526e-03 -1.56149734e-03 1.65151490e-03
      2.12760433e-03 -4.19110729e-04 -1.57856417e-03 -1.33613322e-03
      2.62159389e-03 1.08882005e-03 3.29504895e-04 5.05247153e-04
      4.38966352e-04 6.70789566e-04 2.92793819e-04 7.86026125e-04
      -2.82198918e-04 -5.79185435e-04 8.65413575e-04 8.11117177e-04
      1.09715748e-03 7.79423746e-04 1.28956547e-03 -8.95826437e-04
      -5.16793807e-04 -2.56601814e-03 8.58652580e-04 -4.17747389e-04
      1.07001932e-03 -8.31257901e-04 1.72220473e-03 2.02878029e-03
      6.51789247e-04 -5.91222779e-04 1.29520195e-03 -1.69577508e-03
      -3.11817828e-04 5.73480036e-04 -1.13943079e-03 1.99340560e-04
      2.63834256e-03 1.49122172e-03 1.25193689e-03 -1.54692656e-03
      -5.17165405e-04 -7.91871480e-06 1.15910487e-04 4.12600720e-03
      6.59912266e-03 1.01055298e-03 1.23356318e-03 3.50371189e-03
      -7.65737845e-04 -1.57047459e-03 -2.44540116e-03 -1.50768715e-03
      -6.24211738e-04 2.87024328e-03 -8.81786516e-04 1.92723004e-03
      1.74036971e-03 -1.08415016e-03 -1.10538048e-03 9.72808513e-04
      2.71968264e-03 6.57054083e-03 5.47870249e-03 1.45653693e-03
      -8.93227290e-04 -2.83130736e-04 -5.65271708e-04 -5.85142116e-04
      -1.75462256e-03 1.92305888e-03 3.22303525e-03 1.75825611e-03
      -3.26210889e-03 1.97879970e-04 -1.39069674e-03 -5.70168486e-04
      -5.53237391e-04 -1.19348452e-03 8.04824871e-04 -7.20472541e-04
      3.30752810e-03 5.05658507e-04 9.52558243e-04 -1.46877777e-04
      7.57603993e-05 -4.75034994e-06 1.73857698e-04 8.66485876e-04
      -1.22604193e-04 1.11524074e-03 5.69270866e-04 -2.79796193e-04
      -1.53767352e-03 -5.14747459e-04 2.50050594e-04 -1.46349531e-03
      1.39886769e-03 2.04528356e-03 1.58746250e-03 -1.07459025e-03
      7.59894727e-04 -5.33570128e-04 1.94994500e-03 3.86611413e-04
      -1.56185834e-03 2.64535239e-03 1.30828738e-03 -3.44578380e-04
      -3.41986335e-04 -3.30943585e-04 -2.35161348e-03 1.63719943e-03
      1.25793449e-03 -7.93185725e-04 1.67049421e-03 -2.35914675e-04
      -7.22934346e-05 7.72509375e-04 -9.34362251e-05 -1.30815431e-03
      -1.64722936e-04 -9.07654816e-04 -3.55557801e-04 2.44481489e-03
      1.27402207e-04 6.20374776e-05 1.36338524e-03 1.06795249e-03
      6.55611162e-04 -2.02746107e-03 2.58071627e-03 -2.53144722e-03
      1.16542052e-03 -4.40649135e-04 -8.77110055e-04 9.43913939e-04
      -1.75825233e-04 -2.24957382e-03 2.30721710e-03 1.18620112e-03
      -3.59848840e-04 2.37148930e-03 7.88435682e-06 4.20201046e-04
      3.54780722e-03 1.58473523e-03 -4.87872079e-04 -5.08742582e-04
      -1.98359345e-03 -5.49905584e-04 1.13218883e-03 3.17328796e-03
      3.23524047e-03 2.50352523e-03 1.89250568e-03 -8.00321926e-04
      -2.82701780e-03 -1.31406495e-03 -5.16772096e-04 -5.75104896e-05
      2.57797376e-03 -2.72147940e-03 -1.91957387e-03 -5.60311601e-04
      -3.28494562e-03 -4.32067289e-04 1.71123748e-03 2.31568073e-03
      3.21920076e-03 3.79224424e-03 4.03813261e-04 2.38410640e-03
      3.88850644e-03 1.73379749e-03 2.39584036e-03 -7.84031698e-04
      1.06956658e-03 2.36636586e-03 2.08957307e-03 -2.29399023e-03
      -6.22517895e-04 1.66697160e-03 2.95391452e-04 1.76274171e-03
      2.20441748e-03 -6.41009712e-04 6.52974239e-04 1.56264019e-03
      -6.15827215e-04 -1.32687646e-03 -1.11093323e-04 -1.44791696e-03
      3.65275401e-03 1.86981133e-03 -1.71008974e-03 3.67807515e-04
      -9.09832946e-04 -1.52139203e-03 -1.71495439e-03 -2.63462379e-03
      -2.82757892e-03 2.78939912e-03 2.35757208e-03 1.03287282e-03
      1.95507333e-03 1.79795886e-03 -2.99878564e-04 -5.31654281e-04
      -4.33149893e-04 1.00485398e-03 3.00105498e-03 2.94009852e-03
      -7.42319913e-04 6.98138901e-04 -1.39845884e-03 -1.84025732e-03
      -3.60309868e-03 -3.74638126e-03 -3.74535867e-03 2.25719856e-03
      4.05071490e-03 -9.96599090e-04 5.72651159e-04 -1.39610970e-03
      -1.44538574e-03 2.27873912e-04 -2.92221754e-04 -2.39119143e-03
      1.95025641e-03 5.52841171e-04 -1.49558720e-04 1.01078232e-03
      -4.76146874e-04 3.86520733e-05 2.07015895e-03 1.84698543e-03
      -1.65328092e-03 1.03246188e-04 2.17238301e-03 -1.31431024e-03
      1.17270602e-03 -9.24690510e-04 -2.76912004e-04 -9.85910418e-04
      -5.21187030e-04 -5.03553310e-03 8.48967466e-04 -1.21696049e-03
      -6.77878212e-04 -1.75750713e-04 -1.62753728e-04 9.81674762e-04
      1.79680844e-03 1.15214905e-03 -3.15814046e-03 -3.87110922e-04
      2.64386809e-03 1.79861113e-03 2.91205267e-03 4.99195140e-03
      -1.12787087e-03 -1.69464538e-03 2.46297452e-03 4.49216808e-04
      3.69791989e-03 7.61596239e-05 2.62636429e-04 1.23550952e-03
      1.62261794e-03 -2.97886203e-03 -4.34924290e-03 4.96164314e-04
      1.61403950e-05 1.84141612e-03 3.09033319e-03 9.53836206e-05
      1.59156031e-03 4.80992952e-03 9.65123123e-04 1.66093500e-03
      1.48025935e-03 -2.50039739e-04 1.44857424e-03 7.55005691e-04
      3.43887485e-04 -4.60806274e-04 3.25411349e-03 -3.63126327e-03
      -4.50352905e-03 -1.20863703e-03 -2.08004145e-03 1.13463053e-03
      2.47152150e-03 9.49412584e-04 9.80659155e-04 2.21920619e-03
      9.76932235e-04 -1.68359408e-03 6.63177809e-04 1.74808106e-03
      3.85212759e-03 2.48265313e-03 -3.86136095e-03 -1.06819207e-03
      -1.38608320e-03 -1.12897204e-03 -2.53402069e-03 -1.93821965e-03
      -2.04184162e-03 1.06003985e-03 3.36671947e-03 9.87151638e-04
      1.62544218e-03 2.54016113e-03 3.27207206e-04 -9.65421903e-04
      5.19027468e-04 -1.06122345e-03 9.67523607e-04 2.37204274e-03
      -6.09168026e-04 -2.96806567e-04 -7.35235590e-05 -6.95383002e-04
      -2.19381973e-03 -1.87386770e-03 -4.31615533e-03 -2.66831048e-04
      1.10962871e-03 -3.06194555e-03 8.27539421e-04 1.23340389e-04
      -1.70936604e-04 -6.91610854e-04 -6.26441964e-04 -2.19579786e-03
      8.76250851e-04 -1.21880695e-03 -2.06254027e-03 1.86063023e-03
      1.67382113e-03 7.48174614e-04 1.08416239e-03 -8.91970762e-04
      -2.65782769e-03 -1.83173735e-03 2.04278645e-03 -3.03696812e-04
      1.36439770e-03 9.70433699e-04 -3.99163488e-04 1.30193934e-04
      -1.60026818e-03 -2.82864179e-03 5.75818529e-04 -5.92213008e-04
      -1.54910691e-03 2.04043346e-04 -1.28919957e-03 5.16959524e-04
      1.93488342e-03 -1.29828358e-03 -1.98708032e-03 -1.58831337e-03
      1.64139853e-03 1.95488712e-04 3.03030596e-04 2.77043600e-03
      2.79598217e-03 2.72085238e-03 5.80813445e-04 -7.52380292e-04
      1.87121259e-04 1.31393070e-04 8.48049764e-04 2.53842620e-04
      1.11565692e-03 -1.03024626e-03 -1.21001387e-03 -1.32167980e-03
      -3.71747487e-03 -4.60540032e-04 2.28704140e-03 -2.57076987e-04
      -1.13312126e-04 2.76701641e-03 3.18466988e-03 4.23033442e-03
      6.80927304e-04 1.13747129e-03 3.12951556e-03 -2.48100929e-04
      -4.44343343e-04 -1.28915091e-03 -9.73618764e-04 -2.34492705e-03
      -5.10846789e-04 2.75223487e-04 -1.30880252e-03 9.58227727e-04
      3.79390130e-03 1.67697109e-03 1.77550351e-03 1.05491502e-03
      1.68580841e-03 3.76119890e-04 4.32824076e-04 -1.15600997e-03
      5.04455762e-04 1.55931467e-03 2.65317212e-04 1.12171110e-04
      1.06002251e-03 9.12445423e-04 -1.95813319e-03 -1.72402838e-03
      -2.22576433e-03 -1.33245694e-03 3.27694556e-03 1.77156879e-03
      7.44090066e-04 2.30994367e-04 5.92085999e-04 6.22281077e-05
      3.75911099e-04 6.44055079e-04 3.99615662e-03 8.81118176e-04
      -9.01776715e-04 -1.50775071e-03 -1.08573714e-03 -1.34763264e-04
      -2.61162920e-03 -7.83219293e-04 5.93549572e-04 8.11134581e-04
      1.27532717e-03 3.80096579e-04 -2.94960482e-04 2.30929130e-04
      1.42685068e-03 -1.88075297e-04 -3.96805466e-04 -2.50833528e-03
      -1.00528426e-03 -1.21386640e-03 -1.18787971e-03 -3.83028644e-04
      -6.98867720e-04 1.78616040e-03 1.78168746e-04 1.16704893e-03
      -5.83714747e-04 -1.03005336e-03 4.38260962e-04 -3.84818937e-04
      1.03415063e-04 4.98317881e-04 1.38591975e-03 -1.51258486e-03
      5.52071782e-04 -4.77294700e-04 9.44668194e-04 3.53838754e-04
      -2.51918333e-04 -7.13013287e-04 9.45228268e-04 1.44903990e-03
      -1.14367506e-03 2.72543239e-03 1.78270868e-03 1.23849965e-03
      -8.19199660e-04 1.74410921e-03 1.60230615e-03 9.43527615e-04
      9.95737035e-04 2.07093684e-03 -4.34548361e-04 -2.12425995e-03
      -1.27626164e-03 -1.31033870e-04 -4.53666435e-04 -1.14897429e-03
      -5.76742168e-04 -1.13878690e-03 -1.50645548e-03 -1.52635877e-03
      -3.85672366e-03 -9.67338128e-05 2.92083598e-04 2.51410599e-03
      2.01938907e-03 1.98546168e-03 -1.70406047e-03 1.57934579e-03
      2.08203658e-03 4.71242733e-04 8.27787269e-04 6.21665502e-04
      3.67391476e-04 -8.36154504e-04 -1.09496247e-03 -7.25777936e-04
      9.88913467e-04 -5.44249080e-04 -9.02033818e-04 2.60559213e-03
      1.86677254e-03 -2.71850592e-03 2.13511412e-05 3.41177569e-04
      6.60143502e-04 -2.28669611e-03 -9.44960746e-04 -1.24584651e-03
      1.05116318e-03 2.45755538e-03 -1.08112523e-03 1.06813248e-04
      -1.63628522e-03 -2.74390914e-03 -5.08916285e-03 -5.25555806e-03
      -2.09857081e-03 8.50481098e-04 1.41849893e-03 -1.99444382e-03
      -1.09556713e-03 -7.21669407e-04 2.73256795e-04 -5.34382067e-04
      1.73992797e-04 -1.50867901e-03 2.26385286e-03 2.00083572e-03
      -2.08902266e-03 -2.57464708e-03 1.05343887e-03 -1.10129418e-03
      -2.69174995e-03 -1.69178890e-03 -1.02852262e-03 2.23229965e-03
      1.37139750e-05 2.55478220e-03 1.57597591e-03 -4.11571178e-04
      -1.34122814e-03 -2.24188529e-03 -2.91230879e-03 -4.85937460e-04
      -1.30737375e-04 -1.39414985e-03 1.95634225e-03 1.60026783e-03
      -2.87522358e-04 -1.18339354e-04 4.54142835e-04 -1.18309422e-03
      -2.01962044e-04 -1.10416359e-03 1.99525757e-03 3.29857226e-04
      3.54637928e-06 1.41023158e-03 3.23477070e-05 -8.66143731e-04
      -8.26725620e-04 -1.40064876e-04 2.77523953e-03 7.93868676e-04
      2.17898004e-03 1.10585497e-04 1.05186400e-05 -7.17389281e-04
      1.17020356e-03 -7.39282230e-04 -1.22410140e-03 -1.07022794e-03
      1.46549148e-03 3.61335604e-03 4.10226407e-03 5.39126107e-03
      3.13657016e-04 1.55302766e-03 2.72982009e-03 -7.40347488e-04
      -3.01082735e-03 1.35105173e-03 2.55405135e-03 2.93546170e-03
      1.00199904e-05 -7.57822650e-04 6.99456723e-04 3.83086124e-04
      -1.73245149e-03 -1.49009097e-03 -5.51157631e-04 2.72146985e-03
      2.00918457e-03 5.65453945e-03 4.41463292e-03 3.81190004e-03
      3.01326183e-03 1.30003307e-03 -4.60445695e-03 -9.88645013e-04
      1.31472992e-03 2.30072974e-03 1.29001099e-03 1.31245889e-03
      -1.56633003e-04 1.21253438e-03 -1.07557978e-03 -4.21269098e-03
      3.75766284e-03 1.02108449e-03 1.52417086e-03 -1.01142155e-03
      7.28686864e-04 -7.13072877e-05 3.07683949e-04 -2.70764832e-03
      -7.47125188e-04 2.89180828e-03 6.79268211e-04 1.84192817e-04
      1.06537412e-03 8.37613596e-04 1.10087311e-03 -2.56274416e-05
      -2.89557502e-03 -6.90303250e-06 7.25013029e-04 2.07672059e-03
      1.52894855e-03 -1.48415472e-03 1.70251133e-03 -1.49482512e-03
      -4.92021558e-04 -2.37078522e-03 -3.06295045e-03 1.08202570e-04
      9.42088431e-04 -1.27637526e-03 -1.56149734e-03 1.65151490e-03
      2.12760433e-03 -4.19110729e-04 -1.57856417e-03 -1.33613322e-03
      2.62159389e-03 1.08882005e-03 3.29504895e-04 5.05247153e-04
      4.38966352e-04 6.70789566e-04 2.92793819e-04 7.86026125e-04
      -2.82198918e-04 -5.79185435e-04 8.65413575e-04 8.11117177e-04
      1.09715748e-03 7.79423746e-04 1.28956547e-03 -8.95826437e-04
      -5.16793807e-04 -2.56601814e-03 8.58652580e-04 -4.17747389e-04
      1.07001932e-03 -8.31257901e-04 1.72220473e-03 2.02878029e-03
      6.51789247e-04 -5.91222779e-04 1.29520195e-03 -1.69577508e-03
      -3.11817828e-04 5.73480036e-04 -1.13943079e-03 1.99340560e-04
      2.63834256e-03 1.49122172e-03 1.25193689e-03 -1.54692656e-03
      -5.17165405e-04 -7.91871480e-06 1.15910487e-04 4.12600720e-03
      6.59912266e-03 1.01055298e-03 1.23356318e-03 3.50371189e-03
      -7.65737845e-04 -1.57047459e-03 -2.44540116e-03 -1.50768715e-03
      -6.24211738e-04 2.87024328e-03 -8.81786516e-04 1.92723004e-03
      1.74036971e-03 -1.08415016e-03 -1.10538048e-03 9.72808513e-04
      2.71968264e-03 6.57054083e-03 5.47870249e-03 1.45653693e-03
      -8.93227290e-04 -2.83130736e-04 -5.65271708e-04 -5.85142116e-04
      -1.75462256e-03 1.92305888e-03 3.22303525e-03 1.75825611e-03
      -3.26210889e-03 1.97879970e-04 -1.39069674e-03 -5.70168486e-04
      -5.53237391e-04 -1.19348452e-03 8.04824871e-04 -7.20472541e-04
      3.30752810e-03 5.05658507e-04 9.52558243e-04 -1.46877777e-04
      7.57603993e-05 -4.75034994e-06 1.73857698e-04 8.66485876e-04
      -1.22604193e-04 1.11524074e-03 5.69270866e-04 -2.79796193e-04
      -1.53767352e-03 -5.14747459e-04 2.50050594e-04 -1.46349531e-03
      1.39886769e-03 2.04528356e-03 1.58746250e-03 -1.07459025e-03
      7.59894727e-04 -5.33570128e-04 1.94994500e-03 3.86611413e-04
      -1.56185834e-03 2.64535239e-03 1.30828738e-03 -3.44578380e-04
      -3.41986335e-04 -3.30943585e-04 -2.35161348e-03 1.63719943e-03
      1.25793449e-03 -7.93185725e-04 1.67049421e-03 -2.35914675e-04
      -7.22934346e-05 7.72509375e-04 -9.34362251e-05 -1.30815431e-03
      -1.64722936e-04 -9.07654816e-04 -3.55557801e-04 2.44481489e-03
      1.27402207e-04 6.20374776e-05 1.36338524e-03 1.06795249e-03
      6.55611162e-04 -2.02746107e-03 2.58071627e-03 -2.53144722e-03
      1.16542052e-03 -4.40649135e-04 -8.77110055e-04 9.43913939e-04
      -1.75825233e-04 -2.24957382e-03 2.30721710e-03 1.18620112e-03
      -3.59848840e-04 2.37148930e-03 7.88435682e-06 4.20201046e-04
      3.54780722e-03 1.58473523e-03 -4.87872079e-04 -5.08742582e-04
      -1.98359345e-03 -5.49905584e-04 1.13218883e-03 3.17328796e-03
      3.23524047e-03 2.50352523e-03 1.89250568e-03 -8.00321926e-04
      -2.82701780e-03 -1.31406495e-03 -5.16772096e-04 -5.75104896e-05
      2.57797376e-03 -2.72147940e-03 -1.91957387e-03 -5.60311601e-04
      -3.28494562e-03 -4.32067289e-04 1.71123748e-03 2.31568073e-03
      3.21920076e-03 3.79224424e-03 4.03813261e-04 2.38410640e-03
      3.88850644e-03 1.73379749e-03 2.39584036e-03 -7.84031698e-04
      1.06956658e-03 2.36636586e-03 2.08957307e-03 -2.29399023e-03
      -6.22517895e-04 1.66697160e-03 2.95391452e-04 1.76274171e-03
      2.20441748e-03 -6.41009712e-04 6.52974239e-04 1.56264019e-03
      -6.15827215e-04 -1.32687646e-03 -1.11093323e-04 -1.44791696e-03
      3.65275401e-03 1.86981133e-03 -1.71008974e-03 3.67807515e-04
      -9.09832946e-04 -1.52139203e-03 -1.71495439e-03 -2.63462379e-03
      -2.82757892e-03 2.78939912e-03 2.35757208e-03 1.03287282e-03
      1.95507333e-03 1.79795886e-03 -2.99878564e-04 -5.31654281e-04
      -4.33149893e-04 1.00485398e-03 3.00105498e-03 2.94009852e-03
      -7.42319913e-04 6.98138901e-04 -1.39845884e-03 -1.84025732e-03
      -3.60309868e-03 -3.74638126e-03 -3.74535867e-03 2.25719856e-03
      4.05071490e-03 -9.96599090e-04 5.72651159e-04 -1.39610970e-03
      -1.44538574e-03 2.27873912e-04 -2.92221754e-04 -2.39119143e-03
      1.95025641e-03 5.52841171e-04 -1.49558720e-04 1.01078232e-03
      -4.76146874e-04 3.86520733e-05 2.07015895e-03 1.84698543e-03
      -1.65328092e-03 1.03246188e-04 2.17238301e-03 -1.31431024e-03
      1.17270602e-03 -9.24690510e-04 -2.76912004e-04 -9.85910418e-04
      -5.21187030e-04 -5.03553310e-03 8.48967466e-04 -1.21696049e-03
      -6.77878212e-04 -1.75750713e-04 -1.62753728e-04 9.81674762e-04
      1.79680844e-03 1.15214905e-03 -3.15814046e-03 -3.87110922e-04
      2.64386809e-03 1.79861113e-03 2.91205267e-03 4.99195140e-03
      -1.12787087e-03 -1.69464538e-03 2.46297452e-03 4.49216808e-04
      3.69791989e-03 7.61596239e-05 2.62636429e-04 1.23550952e-03
      1.62261794e-03 -2.97886203e-03 -4.34924290e-03 4.96164314e-04
      1.61403950e-05 1.84141612e-03 3.09033319e-03 9.53836206e-05
      1.59156031e-03 4.80992952e-03 9.65123123e-04 1.66093500e-03
      1.48025935e-03 -2.50039739e-04 1.44857424e-03 7.55005691e-04
      3.43887485e-04 -4.60806274e-04 3.25411349e-03 -3.63126327e-03
      -4.50352905e-03 -1.20863703e-03 -2.08004145e-03 1.13463053e-03
      2.47152150e-03 9.49412584e-04 9.80659155e-04 2.21920619e-03
      9.76932235e-04 -1.68359408e-03 6.63177809e-04 1.74808106e-03
      3.85212759e-03 2.48265313e-03 -3.86136095e-03 -1.06819207e-03
      -1.38608320e-03 -1.12897204e-03 -2.53402069e-03 -1.93821965e-03
      -2.04184162e-03 1.06003985e-03 3.36671947e-03 9.87151638e-04
      1.62544218e-03 2.54016113e-03 3.27207206e-04 -9.65421903e-04
      5.19027468e-04 -1.06122345e-03 9.67523607e-04 2.37204274e-03
      -6.09168026e-04 -2.96806567e-04 -7.35235590e-05 -6.95383002e-04
      -2.19381973e-03 -1.87386770e-03 -4.31615533e-03 -2.66831048e-04
      1.10962871e-03 -3.06194555e-03 8.27539421e-04 1.23340389e-04
      -1.70936604e-04 -6.91610854e-04 -6.26441964e-04 -2.19579786e-03
      8.76250851e-04 -1.21880695e-03 -2.06254027e-03 1.86063023e-03
      1.67382113e-03 7.48174614e-04 1.08416239e-03 -8.91970762e-04
      -2.65782769e-03 -1.83173735e-03 2.04278645e-03 -3.03696812e-04
      1.36439770e-03 9.70433699e-04 -3.99163488e-04 1.30193934e-04
      -1.60026818e-03 -2.82864179e-03 5.75818529e-04 -5.92213008e-04
      -1.54910691e-03 2.04043346e-04 -1.28919957e-03 5.16959524e-04
      1.93488342e-03 -1.29828358e-03 -1.98708032e-03 -1.58831337e-03
      1.64139853e-03 1.95488712e-04 3.03030596e-04 2.77043600e-03
      2.79598217e-03 2.72085238e-03 5.80813445e-04 -7.52380292e-04
      1.87121259e-04 1.31393070e-04 8.48049764e-04 2.53842620e-04
      1.11565692e-03 -1.03024626e-03 -1.21001387e-03 -1.32167980e-03
      -3.71747487e-03 -4.60540032e-04 2.28704140e-03 -2.57076987e-04
      -1.13312126e-04 2.76701641e-03 3.18466988e-03 4.23033442e-03
      6.80927304e-04 1.13747129e-03 3.12951556e-03 -2.48100929e-04
      -4.44343343e-04 -1.28915091e-03 -9.73618764e-04 -2.34492705e-03
      -5.10846789e-04 2.75223487e-04 -1.30880252e-03 9.58227727e-04
      3.79390130e-03 1.67697109e-03 1.77550351e-03 1.05491502e-03
      1.68580841e-03 3.76119890e-04 4.32824076e-04 -1.15600997e-03
      5.04455762e-04 1.55931467e-03 2.65317212e-04 1.12171110e-04
      1.06002251e-03 9.12445423e-04 -1.95813319e-03 -1.72402838e-03
      -2.22576433e-03 -1.33245694e-03 3.27694556e-03 1.77156879e-03
      7.44090066e-04 2.30994367e-04 5.92085999e-04 6.22281077e-05
      3.75911099e-04 6.44055079e-04 3.99615662e-03 8.81118176e-04
      -9.01776715e-04 -1.50775071e-03 -1.08573714e-03 -1.34763264e-04
      -2.61162920e-03 -7.83219293e-04 5.93549572e-04 8.11134581e-04
      1.27532717e-03 3.80096579e-04 -2.94960482e-04 2.30929130e-04
      1.42685068e-03 -1.88075297e-04 -3.96805466e-04 -2.50833528e-03
      -1.00528426e-03 -1.21386640e-03 -1.18787971e-03 -3.83028644e-04
      -6.98867720e-04 1.78616040e-03 1.78168746e-04 1.16704893e-03
      -5.83714747e-04 -1.03005336e-03 4.38260962e-04 -3.84818937e-04
      1.03415063e-04 4.98317881e-04 1.38591975e-03 -1.51258486e-03
      5.52071782e-04 -4.77294700e-04 9.44668194e-04 3.53838754e-04
      -2.51918333e-04 -7.13013287e-04 9.45228268e-04 1.44903990e-03
      -1.14367506e-03 2.72543239e-03 1.78270868e-03 1.23849965e-03
      2.42655259e-03 -1.66998780e-03 6.04954432e-04 1.19778316e-03
      4.07893164e-03 3.37376748e-03 7.71076418e-04 2.33511836e-03
      4.64221928e-03 -7.80887727e-04 -1.22311257e-03 -1.13800063e-03
      -1.57183444e-03 -2.77237035e-03 -2.52445549e-04 -1.27982453e-03
      9.01704479e-04 3.33254272e-03 2.07865518e-03 4.89328639e-04
      1.19150360e-03 2.33883271e-03 4.27351473e-03 1.14383537e-03
      -1.19760679e-03 2.89867283e-04 3.43199028e-03 2.71574431e-03
      -6.15438854e-04 -2.75691855e-03 -8.04291980e-04 -3.28552863e-03
      -3.86464666e-03 -3.76602774e-03 -1.29218551e-03 1.98583677e-03
      2.02168897e-03 1.44845829e-03 4.09308006e-04 2.54113344e-04
      2.38027744e-04 1.38035233e-04 1.23368332e-03 1.76600914e-03
      5.41185588e-03 9.72025504e-04 3.77359480e-04 8.96706595e-04
      -8.05213000e-04 2.65995332e-04 -2.79055419e-03 -2.41835555e-03
      -3.49421258e-04 1.92876766e-03 2.08209828e-03 1.95389800e-03
      9.17058933e-05 1.14889594e-03 2.15013372e-03 1.10462192e-03
      -1.66707192e-04 -1.13052269e-03 4.19289386e-03 1.53928436e-03
      9.22335545e-04 -7.67283665e-04 -2.38713808e-03 1.61266676e-03
      1.85872399e-04 -2.74753850e-03 -8.45858944e-04 8.17638240e-04
      -7.75503169e-04 -1.80464573e-04 6.11088471e-04 1.03356724e-03
      3.80423968e-04 -1.51798059e-03 2.91003234e-04 1.53563777e-03
      1.54730398e-03 -1.49149529e-03 2.35397136e-04 -8.52812082e-04
      2.66295904e-03 1.51538150e-03 -8.12930521e-04 1.96518679e-03
      3.04877455e-03 -2.48514523e-04 -1.03203789e-03 3.40139639e-04
      -9.39624006e-05 -8.86742841e-04 1.18146965e-03 -5.73836034e-04
      -1.60842523e-04 1.34766742e-03 -4.65273071e-04 5.57973806e-04
      -8.32999067e-04 -9.40139871e-04 1.67476560e-03 2.01456738e-03
      -3.14154568e-05 1.09270390e-03 2.95175868e-03 -1.09581603e-03
      1.46549148e-03 3.61335604e-03 4.10226407e-03 5.39126107e-03
      3.13657016e-04 1.55302766e-03 2.72982009e-03 -7.40347488e-04
      -3.01082735e-03 1.35105173e-03 2.55405135e-03 2.93546170e-03
      1.00199904e-05 -7.57822650e-04 6.99456723e-04 3.83086124e-04
      -1.73245149e-03 -1.49009097e-03 -5.51157631e-04 2.72146985e-03
      2.00918457e-03 5.65453945e-03 4.41463292e-03 3.81190004e-03
      3.01326183e-03 1.30003307e-03 -4.60445695e-03 -9.88645013e-04
      1.31472992e-03 2.30072974e-03 1.29001099e-03 1.31245889e-03
      -1.56633003e-04 1.21253438e-03 -1.07557978e-03 -4.21269098e-03
      3.75766284e-03 1.02108449e-03 1.52417086e-03 -1.01142155e-03
      7.28686864e-04 -7.13072877e-05 3.07683949e-04 -2.70764832e-03
      -7.47125188e-04 2.89180828e-03 6.79268211e-04 1.84192817e-04
      1.06537412e-03 8.37613596e-04 1.10087311e-03 -2.56274416e-05
      -2.89557502e-03 -6.90303250e-06 7.25013029e-04 2.07672059e-03
      1.52894855e-03 -1.48415472e-03 1.70251133e-03 -1.49482512e-03
      -4.92021558e-04 -2.37078522e-03 -3.06295045e-03 1.08202570e-04
      9.42088431e-04 -1.27637526e-03 -1.56149734e-03 1.65151490e-03
      2.12760433e-03 -4.19110729e-04 -1.57856417e-03 -1.33613322e-03
      2.62159389e-03 1.08882005e-03 3.29504895e-04 5.05247153e-04
      4.38966352e-04 6.70789566e-04 2.92793819e-04 7.86026125e-04
      -2.82198918e-04 -5.79185435e-04 8.65413575e-04 8.11117177e-04
      1.09715748e-03 7.79423746e-04 1.28956547e-03 -8.95826437e-04
      -5.16793807e-04 -2.56601814e-03 8.58652580e-04 -4.17747389e-04
      1.07001932e-03 -8.31257901e-04 1.72220473e-03 2.02878029e-03
      6.51789247e-04 -5.91222779e-04 1.29520195e-03 -1.69577508e-03
      -3.11817828e-04 5.73480036e-04 -1.13943079e-03 1.99340560e-04
      2.63834256e-03 1.49122172e-03 1.25193689e-03 -1.54692656e-03
      -5.17165405e-04 -7.91871480e-06 1.15910487e-04 4.12600720e-03
      6.59912266e-03 1.01055298e-03 1.23356318e-03 3.50371189e-03
      -7.65737845e-04 -1.57047459e-03 -2.44540116e-03 -1.50768715e-03
      -6.24211738e-04 2.87024328e-03 -8.81786516e-04 1.92723004e-03
      1.74036971e-03 -1.08415016e-03 -1.10538048e-03 9.72808513e-04
      2.71968264e-03 6.57054083e-03 5.47870249e-03 1.45653693e-03
      -8.93227290e-04 -2.83130736e-04 -5.65271708e-04 -5.85142116e-04
      -1.75462256e-03 1.92305888e-03 3.22303525e-03 1.75825611e-03
      -3.26210889e-03 1.97879970e-04 -1.39069674e-03 -5.70168486e-04
      -5.53237391e-04 -1.19348452e-03 8.04824871e-04 -7.20472541e-04
      3.30752810e-03 5.05658507e-04 9.52558243e-04 -1.46877777e-04
      7.57603993e-05 -4.75034994e-06 1.73857698e-04 8.66485876e-04
      -1.22604193e-04 1.11524074e-03 5.69270866e-04 -2.79796193e-04
      -1.53767352e-03 -5.14747459e-04 2.50050594e-04 -1.46349531e-03
      1.39886769e-03 2.04528356e-03 1.58746250e-03 -1.07459025e-03
      7.59894727e-04 -5.33570128e-04 1.94994500e-03 3.86611413e-04
      -1.56185834e-03 2.64535239e-03 1.30828738e-03 -3.44578380e-04
      -3.41986335e-04 -3.30943585e-04 -2.35161348e-03 1.63719943e-03
      1.25793449e-03 -7.93185725e-04 1.67049421e-03 -2.35914675e-04
      -7.22934346e-05 7.72509375e-04 -9.34362251e-05 -1.30815431e-03
      -1.64722936e-04 -9.07654816e-04 -3.55557801e-04 2.44481489e-03
      1.27402207e-04 6.20374776e-05 1.36338524e-03 1.06795249e-03
      6.55611162e-04 -2.02746107e-03 2.58071627e-03 -2.53144722e-03
      1.16542052e-03 -4.40649135e-04 -8.77110055e-04 9.43913939e-04
      -1.75825233e-04 -2.24957382e-03 2.30721710e-03 1.18620112e-03
      -3.59848840e-04 2.37148930e-03 7.88435682e-06 4.20201046e-04
      3.54780722e-03 1.58473523e-03 -4.87872079e-04 -5.08742582e-04
      -1.98359345e-03 -5.49905584e-04 1.13218883e-03 3.17328796e-03
      3.23524047e-03 2.50352523e-03 1.89250568e-03 -8.00321926e-04
      -2.82701780e-03 -1.31406495e-03 -5.16772096e-04 -5.75104896e-05
      2.57797376e-03 -2.72147940e-03 -1.91957387e-03 -5.60311601e-04
      -3.28494562e-03 -4.32067289e-04 1.71123748e-03 2.31568073e-03
      3.21920076e-03 3.79224424e-03 4.03813261e-04 2.38410640e-03
      3.88850644e-03 1.73379749e-03 2.39584036e-03 -7.84031698e-04
      1.06956658e-03 2.36636586e-03 2.08957307e-03 -2.29399023e-03
      -6.22517895e-04 1.66697160e-03 2.95391452e-04 1.76274171e-03
      2.20441748e-03 -6.41009712e-04 6.52974239e-04 1.56264019e-03
      -6.15827215e-04 -1.32687646e-03 -1.11093323e-04 -1.44791696e-03
      3.65275401e-03 1.86981133e-03 -1.71008974e-03 3.67807515e-04
      -9.09832946e-04 -1.52139203e-03 -1.71495439e-03 -2.63462379e-03
      -2.82757892e-03 2.78939912e-03 2.35757208e-03 1.03287282e-03
      1.95507333e-03 1.79795886e-03 -2.99878564e-04 -5.31654281e-04
      -4.33149893e-04 1.00485398e-03 3.00105498e-03 2.94009852e-03
      -7.42319913e-04 6.98138901e-04 -1.39845884e-03 -1.84025732e-03
      -3.60309868e-03 -3.74638126e-03 -3.74535867e-03 2.25719856e-03
      4.05071490e-03 -9.96599090e-04 5.72651159e-04 -1.39610970e-03
      -1.44538574e-03 2.27873912e-04 -2.92221754e-04 -2.39119143e-03
      1.95025641e-03 5.52841171e-04 -1.49558720e-04 1.01078232e-03
      -4.76146874e-04 3.86520733e-05 2.07015895e-03 1.84698543e-03
      -1.65328092e-03 1.03246188e-04 2.17238301e-03 -1.31431024e-03
      1.17270602e-03 -9.24690510e-04 -2.76912004e-04 -9.85910418e-04
      -5.21187030e-04 -5.03553310e-03 8.48967466e-04 -1.21696049e-03
      -6.77878212e-04 -1.75750713e-04 -1.62753728e-04 9.81674762e-04
      1.79680844e-03 1.15214905e-03 -3.15814046e-03 -3.87110922e-04
      2.64386809e-03 1.79861113e-03 2.91205267e-03 4.99195140e-03
      -1.12787087e-03 -1.69464538e-03 2.46297452e-03 4.49216808e-04
      3.69791989e-03 7.61596239e-05 2.62636429e-04 1.23550952e-03
      1.62261794e-03 -2.97886203e-03 -4.34924290e-03 4.96164314e-04
      1.61403950e-05 1.84141612e-03 3.09033319e-03 9.53836206e-05
      1.59156031e-03 4.80992952e-03 9.65123123e-04 1.66093500e-03
      1.48025935e-03 -2.50039739e-04 1.44857424e-03 7.55005691e-04
      3.43887485e-04 -4.60806274e-04 3.25411349e-03 -3.63126327e-03
      -4.50352905e-03 -1.20863703e-03 -2.08004145e-03 1.13463053e-03
      2.47152150e-03 9.49412584e-04 9.80659155e-04 2.21920619e-03
      9.76932235e-04 -1.68359408e-03 6.63177809e-04 1.74808106e-03
      3.85212759e-03 2.48265313e-03 -3.86136095e-03 -1.06819207e-03
      -1.38608320e-03 -1.12897204e-03 -2.53402069e-03 -1.93821965e-03
      -2.04184162e-03 1.06003985e-03 3.36671947e-03 9.87151638e-04
      1.62544218e-03 2.54016113e-03 3.27207206e-04 -9.65421903e-04
      5.19027468e-04 -1.06122345e-03 9.67523607e-04 2.37204274e-03
      -6.09168026e-04 -2.96806567e-04 -7.35235590e-05 -6.95383002e-04
      -2.19381973e-03 -1.87386770e-03 -4.31615533e-03 -2.66831048e-04
      1.10962871e-03 -3.06194555e-03 8.27539421e-04 1.23340389e-04
      -1.70936604e-04 -6.91610854e-04 -6.26441964e-04 -2.19579786e-03
      8.76250851e-04 -1.21880695e-03 -2.06254027e-03 1.86063023e-03
      1.67382113e-03 7.48174614e-04 1.08416239e-03 -8.91970762e-04
      -2.65782769e-03 -1.83173735e-03 2.04278645e-03 -3.03696812e-04
      1.36439770e-03 9.70433699e-04 -3.99163488e-04 1.30193934e-04
      -1.60026818e-03 -2.82864179e-03 5.75818529e-04 -5.92213008e-04
      -1.54910691e-03 2.04043346e-04 -1.28919957e-03 5.16959524e-04
      1.93488342e-03 -1.29828358e-03 -1.98708032e-03 -1.58831337e-03
      1.64139853e-03 1.95488712e-04 3.03030596e-04 2.77043600e-03
      2.79598217e-03 2.72085238e-03 5.80813445e-04 -7.52380292e-04
      1.87121259e-04 1.31393070e-04 8.48049764e-04 2.53842620e-04
      1.11565692e-03 -1.03024626e-03 -1.21001387e-03 -1.32167980e-03
      -3.71747487e-03 -4.60540032e-04 2.28704140e-03 -2.57076987e-04
      -1.13312126e-04 2.76701641e-03 3.18466988e-03 4.23033442e-03
      6.80927304e-04 1.13747129e-03 3.12951556e-03 -2.48100929e-04
      -4.44343343e-04 -1.28915091e-03 -9.73618764e-04 -2.34492705e-03
      -5.10846789e-04 2.75223487e-04 -1.30880252e-03 9.58227727e-04
      3.79390130e-03 1.67697109e-03 1.77550351e-03 1.05491502e-03
      1.68580841e-03 3.76119890e-04 4.32824076e-04 -1.15600997e-03
      5.04455762e-04 1.55931467e-03 2.65317212e-04 1.12171110e-04
      1.06002251e-03 9.12445423e-04 -1.95813319e-03 -1.72402838e-03
      -2.22576433e-03 -1.33245694e-03 3.27694556e-03 1.77156879e-03
      7.44090066e-04 2.30994367e-04 5.92085999e-04 6.22281077e-05
      3.75911099e-04 6.44055079e-04 3.99615662e-03 8.81118176e-04
      -9.01776715e-04 -1.50775071e-03 -1.08573714e-03 -1.34763264e-04
      -2.61162920e-03 -7.83219293e-04 5.93549572e-04 8.11134581e-04
      1.27532717e-03 3.80096579e-04 -2.94960482e-04 2.30929130e-04
      1.42685068e-03 -1.88075297e-04 -3.96805466e-04 -2.50833528e-03
      -1.00528426e-03 -1.21386640e-03 -1.18787971e-03 -3.83028644e-04
      -6.98867720e-04 1.78616040e-03 1.78168746e-04 1.16704893e-03
      -5.83714747e-04 -1.03005336e-03 4.38260962e-04 -3.84818937e-04
      1.03415063e-04 4.98317881e-04 1.38591975e-03 -1.51258486e-03
      5.52071782e-04 -4.77294700e-04 9.44668194e-04 3.53838754e-04
      -2.51918333e-04 -7.13013287e-04 9.45228268e-04 1.44903990e-03
      -1.14367506e-03 2.72543239e-03 1.78270868e-03 1.23849965e-03
      2.42655259e-03 -1.66998780e-03 6.04954432e-04 1.19778316e-03
      4.07893164e-03 3.37376748e-03 7.71076418e-04 2.33511836e-03
      4.64221928e-03 -7.80887727e-04 -1.22311257e-03 -1.13800063e-03
      -1.57183444e-03 -2.77237035e-03 -2.52445549e-04 -1.27982453e-03
      9.01704479e-04 3.33254272e-03 2.07865518e-03 4.89328639e-04
      1.19150360e-03 2.33883271e-03 4.27351473e-03 1.14383537e-03
      -1.19760679e-03 2.89867283e-04 3.43199028e-03 2.71574431e-03
      -6.15438854e-04 -2.75691855e-03 -8.04291980e-04 -3.28552863e-03
      -3.86464666e-03 -3.76602774e-03 -1.29218551e-03 1.98583677e-03
      2.02168897e-03 1.44845829e-03 4.09308006e-04 2.54113344e-04
      2.38027744e-04 1.38035233e-04 1.23368332e-03 1.76600914e-03
      5.41185588e-03 9.72025504e-04 3.77359480e-04 8.96706595e-04
      -8.05213000e-04 2.65995332e-04 -2.79055419e-03 -2.41835555e-03
      -3.49421258e-04 1.92876766e-03 2.08209828e-03 1.95389800e-03
      9.17058933e-05 1.14889594e-03 2.15013372e-03 1.10462192e-03
      -1.66707192e-04 -1.13052269e-03 4.19289386e-03 1.53928436e-03
      9.22335545e-04 -7.67283665e-04 -2.38713808e-03 1.61266676e-03
      1.85872399e-04 -2.74753850e-03 -8.45858944e-04 8.17638240e-04
      -7.75503169e-04 -1.80464573e-04 6.11088471e-04 1.03356724e-03
      3.80423968e-04 -1.51798059e-03 2.91003234e-04 1.53563777e-03
      1.54730398e-03 -1.49149529e-03 2.35397136e-04 -8.52812082e-04
      2.66295904e-03 1.51538150e-03 -8.12930521e-04 1.96518679e-03
      3.04877455e-03 -2.48514523e-04 -1.03203789e-03 3.40139639e-04
      -9.39624006e-05 -8.86742841e-04 1.18146965e-03 -5.73836034e-04
      -1.60842523e-04 1.34766742e-03 -4.65273071e-04 5.57973806e-04
      -8.32999067e-04 -9.40139871e-04 1.67476560e-03 2.01456738e-03
      -3.14154568e-05 1.09270390e-03 2.95175868e-03 -1.09581603e-03
      2.17982032e-03 8.21927388e-04 7.48132181e-04 2.25120969e-03
      3.85838863e-03 1.27513730e-03 -7.13190122e-04 -9.94473463e-04
      2.92510493e-03 3.87456530e-04 1.63587611e-04 -1.96306990e-03
      -8.78574210e-04 -7.97346642e-04 -2.22584186e-03 -4.56605712e-03
      -3.60140111e-03 3.30867741e-04 1.00933341e-03 -3.52147035e-04
      2.44654040e-03 5.03327046e-03 1.44831033e-03 2.30729929e-03
      1.23527215e-03 1.69285526e-03 2.71133636e-03 -1.27008895e-03
      -3.58372112e-03 -1.53408770e-03 1.84593501e-03 -3.33878183e-04
      -1.14042348e-04 -3.01531260e-03 -1.70441845e-03 -1.53544359e-03
      1.33614358e-03 1.37604598e-03 9.60510282e-04 3.75637785e-03
      3.88368359e-03 5.87824965e-04 -1.54120894e-03 -3.02057667e-03
      5.81489061e-04 -2.62365240e-04 1.87430682e-03 -4.09151049e-04
      -7.56214897e-04 -9.41202670e-05 1.12276280e-03 -3.06251296e-03
      -3.58436164e-03 -1.07074692e-03 7.22263125e-04 -1.24305530e-04
      1.92350347e-03 4.95082606e-03 2.81909737e-03 1.99676142e-03
      2.79577420e-04 1.42127462e-03 1.76051131e-03 4.08618274e-04
      2.22124741e-03 3.11913481e-03 5.15835942e-04 -2.31314916e-03
      -1.15664897e-03 -6.04638015e-04 2.31313333e-03 5.15921332e-04
      5.55132749e-04 1.07246696e-03 -9.12805437e-04 -1.65661413e-03
      5.76946652e-04 5.62631467e-04 -6.41540915e-04 -4.97765213e-05
      -3.20860418e-04 -7.88606936e-04 -1.80950353e-03 -9.79912817e-04
      2.04360415e-03 1.78675912e-03 -9.02792905e-04 -6.74234354e-04
      3.36005585e-04 -8.07331351e-04 1.86443841e-03 3.56636709e-03
      6.41133171e-04 -7.22759229e-04 -1.55050028e-03 -9.05380584e-04
      -3.65223794e-04 6.13154960e-04 1.29414082e-03 1.74721717e-04
      4.13444126e-03 1.11832598e-03 1.67498831e-03 1.05050323e-03
      -1.30505557e-03 9.39443591e-04 -1.09657960e-03 -8.77206796e-04
      -5.17165405e-04 -7.91871480e-06 1.15910487e-04 4.12600720e-03
      6.59912266e-03 1.01055298e-03 1.23356318e-03 3.50371189e-03
      -7.65737845e-04 -1.57047459e-03 -2.44540116e-03 -1.50768715e-03
      -6.24211738e-04 2.87024328e-03 -8.81786516e-04 1.92723004e-03
      1.74036971e-03 -1.08415016e-03 -1.10538048e-03 9.72808513e-04
      2.71968264e-03 6.57054083e-03 5.47870249e-03 1.45653693e-03
      -8.93227290e-04 -2.83130736e-04 -5.65271708e-04 -5.85142116e-04
      -1.75462256e-03 1.92305888e-03 3.22303525e-03 1.75825611e-03
      -3.26210889e-03 1.97879970e-04 -1.39069674e-03 -5.70168486e-04
      -5.53237391e-04 -1.19348452e-03 8.04824871e-04 -7.20472541e-04
      3.30752810e-03 5.05658507e-04 9.52558243e-04 -1.46877777e-04
      7.57603993e-05 -4.75034994e-06 1.73857698e-04 8.66485876e-04
      -1.22604193e-04 1.11524074e-03 5.69270866e-04 -2.79796193e-04
      -1.53767352e-03 -5.14747459e-04 2.50050594e-04 -1.46349531e-03
      1.39886769e-03 2.04528356e-03 1.58746250e-03 -1.07459025e-03
      7.59894727e-04 -5.33570128e-04 1.94994500e-03 3.86611413e-04
      -1.56185834e-03 2.64535239e-03 1.30828738e-03 -3.44578380e-04
      -3.41986335e-04 -3.30943585e-04 -2.35161348e-03 1.63719943e-03
      1.25793449e-03 -7.93185725e-04 1.67049421e-03 -2.35914675e-04
      -7.22934346e-05 7.72509375e-04 -9.34362251e-05 -1.30815431e-03
      -1.64722936e-04 -9.07654816e-04 -3.55557801e-04 2.44481489e-03
      1.27402207e-04 6.20374776e-05 1.36338524e-03 1.06795249e-03
      6.55611162e-04 -2.02746107e-03 2.58071627e-03 -2.53144722e-03
      1.16542052e-03 -4.40649135e-04 -8.77110055e-04 9.43913939e-04
      -1.75825233e-04 -2.24957382e-03 2.30721710e-03 1.18620112e-03
      -3.59848840e-04 2.37148930e-03 7.88435682e-06 4.20201046e-04
      3.54780722e-03 1.58473523e-03 -4.87872079e-04 -5.08742582e-04
      -1.98359345e-03 -5.49905584e-04 1.13218883e-03 3.17328796e-03
      3.23524047e-03 2.50352523e-03 1.89250568e-03 -8.00321926e-04
      -2.82701780e-03 -1.31406495e-03 -5.16772096e-04 -5.75104896e-05
      2.57797376e-03 -2.72147940e-03 -1.91957387e-03 -5.60311601e-04
      -3.28494562e-03 -4.32067289e-04 1.71123748e-03 2.31568073e-03
      3.21920076e-03 3.79224424e-03 4.03813261e-04 2.38410640e-03
      3.88850644e-03 1.73379749e-03 2.39584036e-03 -7.84031698e-04
      1.06956658e-03 2.36636586e-03 2.08957307e-03 -2.29399023e-03
      -6.22517895e-04 1.66697160e-03 2.95391452e-04 1.76274171e-03
      2.20441748e-03 -6.41009712e-04 6.52974239e-04 1.56264019e-03
      -6.15827215e-04 -1.32687646e-03 -1.11093323e-04 -1.44791696e-03
      3.65275401e-03 1.86981133e-03 -1.71008974e-03 3.67807515e-04
      -9.09832946e-04 -1.52139203e-03 -1.71495439e-03 -2.63462379e-03
      -2.82757892e-03 2.78939912e-03 2.35757208e-03 1.03287282e-03
      1.95507333e-03 1.79795886e-03 -2.99878564e-04 -5.31654281e-04
      -4.33149893e-04 1.00485398e-03 3.00105498e-03 2.94009852e-03
      -7.42319913e-04 6.98138901e-04 -1.39845884e-03 -1.84025732e-03
      -3.60309868e-03 -3.74638126e-03 -3.74535867e-03 2.25719856e-03
      4.05071490e-03 -9.96599090e-04 5.72651159e-04 -1.39610970e-03
      -1.44538574e-03 2.27873912e-04 -2.92221754e-04 -2.39119143e-03
      1.95025641e-03 5.52841171e-04 -1.49558720e-04 1.01078232e-03
      -4.76146874e-04 3.86520733e-05 2.07015895e-03 1.84698543e-03
      -1.65328092e-03 1.03246188e-04 2.17238301e-03 -1.31431024e-03
      1.17270602e-03 -9.24690510e-04 -2.76912004e-04 -9.85910418e-04
      -5.21187030e-04 -5.03553310e-03 8.48967466e-04 -1.21696049e-03
      -6.77878212e-04 -1.75750713e-04 -1.62753728e-04 9.81674762e-04
      1.79680844e-03 1.15214905e-03 -3.15814046e-03 -3.87110922e-04
      2.64386809e-03 1.79861113e-03 2.91205267e-03 4.99195140e-03
      -1.12787087e-03 -1.69464538e-03 2.46297452e-03 4.49216808e-04
      3.69791989e-03 7.61596239e-05 2.62636429e-04 1.23550952e-03
      1.62261794e-03 -2.97886203e-03 -4.34924290e-03 4.96164314e-04
      1.61403950e-05 1.84141612e-03 3.09033319e-03 9.53836206e-05
      1.59156031e-03 4.80992952e-03 9.65123123e-04 1.66093500e-03
      1.48025935e-03 -2.50039739e-04 1.44857424e-03 7.55005691e-04
      3.43887485e-04 -4.60806274e-04 3.25411349e-03 -3.63126327e-03
      -4.50352905e-03 -1.20863703e-03 -2.08004145e-03 1.13463053e-03
      2.47152150e-03 9.49412584e-04 9.80659155e-04 2.21920619e-03
      9.76932235e-04 -1.68359408e-03 6.63177809e-04 1.74808106e-03
      3.85212759e-03 2.48265313e-03 -3.86136095e-03 -1.06819207e-03
      -1.38608320e-03 -1.12897204e-03 -2.53402069e-03 -1.93821965e-03
      -2.04184162e-03 1.06003985e-03 3.36671947e-03 9.87151638e-04
      1.62544218e-03 2.54016113e-03 3.27207206e-04 -9.65421903e-04
      5.19027468e-04 -1.06122345e-03 9.67523607e-04 2.37204274e-03
      -6.09168026e-04 -2.96806567e-04 -7.35235590e-05 -6.95383002e-04
      -2.19381973e-03 -1.87386770e-03 -4.31615533e-03 -2.66831048e-04
      1.10962871e-03 -3.06194555e-03 8.27539421e-04 1.23340389e-04
      -1.70936604e-04 -6.91610854e-04 -6.26441964e-04 -2.19579786e-03
      8.76250851e-04 -1.21880695e-03 -2.06254027e-03 1.86063023e-03
      1.67382113e-03 7.48174614e-04 1.08416239e-03 -8.91970762e-04
      -2.65782769e-03 -1.83173735e-03 2.04278645e-03 -3.03696812e-04
      1.36439770e-03 9.70433699e-04 -3.99163488e-04 1.30193934e-04
      -1.60026818e-03 -2.82864179e-03 5.75818529e-04 -5.92213008e-04
      -1.54910691e-03 2.04043346e-04 -1.28919957e-03 5.16959524e-04
      1.93488342e-03 -1.29828358e-03 -1.98708032e-03 -1.58831337e-03
      1.64139853e-03 1.95488712e-04 3.03030596e-04 2.77043600e-03
      2.79598217e-03 2.72085238e-03 5.80813445e-04 -7.52380292e-04
      1.87121259e-04 1.31393070e-04 8.48049764e-04 2.53842620e-04
      1.11565692e-03 -1.03024626e-03 -1.21001387e-03 -1.32167980e-03
      -3.71747487e-03 -4.60540032e-04 2.28704140e-03 -2.57076987e-04
      -1.13312126e-04 2.76701641e-03 3.18466988e-03 4.23033442e-03
      6.80927304e-04 1.13747129e-03 3.12951556e-03 -2.48100929e-04
      -4.44343343e-04 -1.28915091e-03 -9.73618764e-04 -2.34492705e-03
      -5.10846789e-04 2.75223487e-04 -1.30880252e-03 9.58227727e-04
      3.79390130e-03 1.67697109e-03 1.77550351e-03 1.05491502e-03
      1.68580841e-03 3.76119890e-04 4.32824076e-04 -1.15600997e-03
      5.04455762e-04 1.55931467e-03 2.65317212e-04 1.12171110e-04
      1.06002251e-03 9.12445423e-04 -1.95813319e-03 -1.72402838e-03
      -2.22576433e-03 -1.33245694e-03 3.27694556e-03 1.77156879e-03
      7.44090066e-04 2.30994367e-04 5.92085999e-04 6.22281077e-05
      3.75911099e-04 6.44055079e-04 3.99615662e-03 8.81118176e-04
      -9.01776715e-04 -1.50775071e-03 -1.08573714e-03 -1.34763264e-04
      -2.61162920e-03 -7.83219293e-04 5.93549572e-04 8.11134581e-04
      1.27532717e-03 3.80096579e-04 -2.94960482e-04 2.30929130e-04
      1.42685068e-03 -1.88075297e-04 -3.96805466e-04 -2.50833528e-03
      -1.00528426e-03 -1.21386640e-03 -1.18787971e-03 -3.83028644e-04
      -6.98867720e-04 1.78616040e-03 1.78168746e-04 1.16704893e-03
      -5.83714747e-04 -1.03005336e-03 4.38260962e-04 -3.84818937e-04
      1.03415063e-04 4.98317881e-04 1.38591975e-03 -1.51258486e-03
      5.52071782e-04 -4.77294700e-04 9.44668194e-04 3.53838754e-04
      -2.51918333e-04 -7.13013287e-04 9.45228268e-04 1.44903990e-03
      -1.14367506e-03 2.72543239e-03 1.78270868e-03 1.23849965e-03
      2.42655259e-03 -1.66998780e-03 6.04954432e-04 1.19778316e-03
      4.07893164e-03 3.37376748e-03 7.71076418e-04 2.33511836e-03
      4.64221928e-03 -7.80887727e-04 -1.22311257e-03 -1.13800063e-03
      -1.57183444e-03 -2.77237035e-03 -2.52445549e-04 -1.27982453e-03
      9.01704479e-04 3.33254272e-03 2.07865518e-03 4.89328639e-04
      1.19150360e-03 2.33883271e-03 4.27351473e-03 1.14383537e-03
      -1.19760679e-03 2.89867283e-04 3.43199028e-03 2.71574431e-03
      -6.15438854e-04 -2.75691855e-03 -8.04291980e-04 -3.28552863e-03
      -3.86464666e-03 -3.76602774e-03 -1.29218551e-03 1.98583677e-03
      2.02168897e-03 1.44845829e-03 4.09308006e-04 2.54113344e-04
      2.38027744e-04 1.38035233e-04 1.23368332e-03 1.76600914e-03
      5.41185588e-03 9.72025504e-04 3.77359480e-04 8.96706595e-04
      -8.05213000e-04 2.65995332e-04 -2.79055419e-03 -2.41835555e-03
      -3.49421258e-04 1.92876766e-03 2.08209828e-03 1.95389800e-03
      9.17058933e-05 1.14889594e-03 2.15013372e-03 1.10462192e-03
      -1.66707192e-04 -1.13052269e-03 4.19289386e-03 1.53928436e-03
      9.22335545e-04 -7.67283665e-04 -2.38713808e-03 1.61266676e-03
      1.85872399e-04 -2.74753850e-03 -8.45858944e-04 8.17638240e-04
      -7.75503169e-04 -1.80464573e-04 6.11088471e-04 1.03356724e-03
      3.80423968e-04 -1.51798059e-03 2.91003234e-04 1.53563777e-03
      1.54730398e-03 -1.49149529e-03 2.35397136e-04 -8.52812082e-04
      2.66295904e-03 1.51538150e-03 -8.12930521e-04 1.96518679e-03
      3.04877455e-03 -2.48514523e-04 -1.03203789e-03 3.40139639e-04
      -9.39624006e-05 -8.86742841e-04 1.18146965e-03 -5.73836034e-04
      -1.60842523e-04 1.34766742e-03 -4.65273071e-04 5.57973806e-04
      -8.32999067e-04 -9.40139871e-04 1.67476560e-03 2.01456738e-03
      -3.14154568e-05 1.09270390e-03 2.95175868e-03 -1.09581603e-03
      2.17982032e-03 8.21927388e-04 7.48132181e-04 2.25120969e-03
      3.85838863e-03 1.27513730e-03 -7.13190122e-04 -9.94473463e-04
      2.92510493e-03 3.87456530e-04 1.63587611e-04 -1.96306990e-03
      -8.78574210e-04 -7.97346642e-04 -2.22584186e-03 -4.56605712e-03
      -3.60140111e-03 3.30867741e-04 1.00933341e-03 -3.52147035e-04
      2.44654040e-03 5.03327046e-03 1.44831033e-03 2.30729929e-03
      1.23527215e-03 1.69285526e-03 2.71133636e-03 -1.27008895e-03
      -3.58372112e-03 -1.53408770e-03 1.84593501e-03 -3.33878183e-04
      -1.14042348e-04 -3.01531260e-03 -1.70441845e-03 -1.53544359e-03
      1.33614358e-03 1.37604598e-03 9.60510282e-04 3.75637785e-03
      3.88368359e-03 5.87824965e-04 -1.54120894e-03 -3.02057667e-03
      5.81489061e-04 -2.62365240e-04 1.87430682e-03 -4.09151049e-04
      -7.56214897e-04 -9.41202670e-05 1.12276280e-03 -3.06251296e-03
      -3.58436164e-03 -1.07074692e-03 7.22263125e-04 -1.24305530e-04
      1.92350347e-03 4.95082606e-03 2.81909737e-03 1.99676142e-03
      2.79577420e-04 1.42127462e-03 1.76051131e-03 4.08618274e-04
      2.22124741e-03 3.11913481e-03 5.15835942e-04 -2.31314916e-03
      -1.15664897e-03 -6.04638015e-04 2.31313333e-03 5.15921332e-04
      5.55132749e-04 1.07246696e-03 -9.12805437e-04 -1.65661413e-03
      5.76946652e-04 5.62631467e-04 -6.41540915e-04 -4.97765213e-05
      -3.20860418e-04 -7.88606936e-04 -1.80950353e-03 -9.79912817e-04
      2.04360415e-03 1.78675912e-03 -9.02792905e-04 -6.74234354e-04
      3.36005585e-04 -8.07331351e-04 1.86443841e-03 3.56636709e-03
      6.41133171e-04 -7.22759229e-04 -1.55050028e-03 -9.05380584e-04
      -3.65223794e-04 6.13154960e-04 1.29414082e-03 1.74721717e-04
      4.13444126e-03 1.11832598e-03 1.67498831e-03 1.05050323e-03
      -1.30505557e-03 9.39443591e-04 -1.09657960e-03 -8.77206796e-04
      6.31879666e-04 -4.95847431e-04 2.14164238e-03 3.57369380e-03
      3.14052193e-03 1.94668164e-03 3.68771929e-04 1.42561283e-03
      2.53978372e-03 -2.46753916e-03 -4.74376045e-03 -9.46705695e-04
      1.92552910e-03 1.08743797e-03 8.50034063e-04 -1.59104459e-03
      1.21779437e-03 2.34140767e-04 3.00147629e-04 2.78868509e-04
      2.25785375e-03 2.04156921e-03 1.91423739e-03 -4.51581145e-05
      -2.49139775e-05 -5.55575883e-04 7.36510905e-04 -8.27474403e-04
      -3.26571823e-03 -1.71816407e-03 -4.03378712e-04 -8.91845208e-04
      -2.30251788e-03 -6.46648929e-04 2.50532496e-04 -7.29764215e-05
      -1.30960089e-03 -2.03067553e-03 3.46541463e-04 2.58358382e-03
      3.14189843e-03 -4.87018871e-04 7.16219540e-04 2.29398976e-03
      2.65684794e-03 -1.58853375e-03 -1.70490844e-03 2.07132241e-03
      1.71834545e-03 -1.49920071e-03 -1.80988386e-03 3.75409902e-04
      9.05089022e-04 2.07425514e-03 6.67143206e-04 4.04147249e-06
      8.83556088e-04 3.55897093e-04 1.39014702e-03 -7.39540963e-04
      1.82350003e-03 5.41969028e-04 1.31511840e-03 -4.99208982e-04
      -1.86446495e-03 -9.48623128e-05 3.04623944e-04 -1.85689027e-03
      -1.30135717e-03 1.11934496e-03 -2.35111889e-04 7.77065579e-04
      -1.87478459e-03 -8.27588301e-05 1.11065747e-03 1.23142009e-03
      -5.23444091e-04 -7.61684438e-04 -1.85455734e-04 6.47082517e-04
      1.91030686e-03 -1.10327639e-03 2.51539866e-03 5.23929077e-04
      1.18162076e-03 1.90781790e-03 -7.16611277e-04 3.90686590e-04
      -2.45066913e-04 1.71342783e-03 -3.88315908e-04 -7.93455169e-04
      1.23674783e-03 5.34457286e-05 -4.21159115e-04 -7.36880640e-04
      8.94031618e-05 7.90287100e-04 1.07057660e-03 -1.46993159e-04
      -9.02201748e-04 -7.69989681e-04 -2.18094283e-04 -1.72010378e-03
      -1.87493768e-03 -8.50682263e-05 -3.81004123e-04 1.57484203e-04
      -1.98359345e-03 -5.49905584e-04 1.13218883e-03 3.17328796e-03
      3.23524047e-03 2.50352523e-03 1.89250568e-03 -8.00321926e-04
      -2.82701780e-03 -1.31406495e-03 -5.16772096e-04 -5.75104896e-05
      2.57797376e-03 -2.72147940e-03 -1.91957387e-03 -5.60311601e-04
      -3.28494562e-03 -4.32067289e-04 1.71123748e-03 2.31568073e-03
      3.21920076e-03 3.79224424e-03 4.03813261e-04 2.38410640e-03
      3.88850644e-03 1.73379749e-03 2.39584036e-03 -7.84031698e-04
      1.06956658e-03 2.36636586e-03 2.08957307e-03 -2.29399023e-03
      -6.22517895e-04 1.66697160e-03 2.95391452e-04 1.76274171e-03
      2.20441748e-03 -6.41009712e-04 6.52974239e-04 1.56264019e-03
      -6.15827215e-04 -1.32687646e-03 -1.11093323e-04 -1.44791696e-03
      3.65275401e-03 1.86981133e-03 -1.71008974e-03 3.67807515e-04
      -9.09832946e-04 -1.52139203e-03 -1.71495439e-03 -2.63462379e-03
      -2.82757892e-03 2.78939912e-03 2.35757208e-03 1.03287282e-03
      1.95507333e-03 1.79795886e-03 -2.99878564e-04 -5.31654281e-04
      -4.33149893e-04 1.00485398e-03 3.00105498e-03 2.94009852e-03
      -7.42319913e-04 6.98138901e-04 -1.39845884e-03 -1.84025732e-03
      -3.60309868e-03 -3.74638126e-03 -3.74535867e-03 2.25719856e-03
      4.05071490e-03 -9.96599090e-04 5.72651159e-04 -1.39610970e-03
      -1.44538574e-03 2.27873912e-04 -2.92221754e-04 -2.39119143e-03
      1.95025641e-03 5.52841171e-04 -1.49558720e-04 1.01078232e-03
      -4.76146874e-04 3.86520733e-05 2.07015895e-03 1.84698543e-03
      -1.65328092e-03 1.03246188e-04 2.17238301e-03 -1.31431024e-03
      1.17270602e-03 -9.24690510e-04 -2.76912004e-04 -9.85910418e-04
      -5.21187030e-04 -5.03553310e-03 8.48967466e-04 -1.21696049e-03
      -6.77878212e-04 -1.75750713e-04 -1.62753728e-04 9.81674762e-04
      1.79680844e-03 1.15214905e-03 -3.15814046e-03 -3.87110922e-04
      2.64386809e-03 1.79861113e-03 2.91205267e-03 4.99195140e-03
      -1.12787087e-03 -1.69464538e-03 2.46297452e-03 4.49216808e-04
      3.69791989e-03 7.61596239e-05 2.62636429e-04 1.23550952e-03
      1.62261794e-03 -2.97886203e-03 -4.34924290e-03 4.96164314e-04
      1.61403950e-05 1.84141612e-03 3.09033319e-03 9.53836206e-05
      1.59156031e-03 4.80992952e-03 9.65123123e-04 1.66093500e-03
      1.48025935e-03 -2.50039739e-04 1.44857424e-03 7.55005691e-04
      3.43887485e-04 -4.60806274e-04 3.25411349e-03 -3.63126327e-03
      -4.50352905e-03 -1.20863703e-03 -2.08004145e-03 1.13463053e-03
      2.47152150e-03 9.49412584e-04 9.80659155e-04 2.21920619e-03
      9.76932235e-04 -1.68359408e-03 6.63177809e-04 1.74808106e-03
      3.85212759e-03 2.48265313e-03 -3.86136095e-03 -1.06819207e-03
      -1.38608320e-03 -1.12897204e-03 -2.53402069e-03 -1.93821965e-03
      -2.04184162e-03 1.06003985e-03 3.36671947e-03 9.87151638e-04
      1.62544218e-03 2.54016113e-03 3.27207206e-04 -9.65421903e-04
      5.19027468e-04 -1.06122345e-03 9.67523607e-04 2.37204274e-03
      -6.09168026e-04 -2.96806567e-04 -7.35235590e-05 -6.95383002e-04
      -2.19381973e-03 -1.87386770e-03 -4.31615533e-03 -2.66831048e-04
      1.10962871e-03 -3.06194555e-03 8.27539421e-04 1.23340389e-04
      -1.70936604e-04 -6.91610854e-04 -6.26441964e-04 -2.19579786e-03
      8.76250851e-04 -1.21880695e-03 -2.06254027e-03 1.86063023e-03
      1.67382113e-03 7.48174614e-04 1.08416239e-03 -8.91970762e-04
      -2.65782769e-03 -1.83173735e-03 2.04278645e-03 -3.03696812e-04
      1.36439770e-03 9.70433699e-04 -3.99163488e-04 1.30193934e-04
      -1.60026818e-03 -2.82864179e-03 5.75818529e-04 -5.92213008e-04
      -1.54910691e-03 2.04043346e-04 -1.28919957e-03 5.16959524e-04
      1.93488342e-03 -1.29828358e-03 -1.98708032e-03 -1.58831337e-03
      1.64139853e-03 1.95488712e-04 3.03030596e-04 2.77043600e-03
      2.79598217e-03 2.72085238e-03 5.80813445e-04 -7.52380292e-04
      1.87121259e-04 1.31393070e-04 8.48049764e-04 2.53842620e-04
      1.11565692e-03 -1.03024626e-03 -1.21001387e-03 -1.32167980e-03
      -3.71747487e-03 -4.60540032e-04 2.28704140e-03 -2.57076987e-04
      -1.13312126e-04 2.76701641e-03 3.18466988e-03 4.23033442e-03
      6.80927304e-04 1.13747129e-03 3.12951556e-03 -2.48100929e-04
      -4.44343343e-04 -1.28915091e-03 -9.73618764e-04 -2.34492705e-03
      -5.10846789e-04 2.75223487e-04 -1.30880252e-03 9.58227727e-04
      3.79390130e-03 1.67697109e-03 1.77550351e-03 1.05491502e-03
      1.68580841e-03 3.76119890e-04 4.32824076e-04 -1.15600997e-03
      5.04455762e-04 1.55931467e-03 2.65317212e-04 1.12171110e-04
      1.06002251e-03 9.12445423e-04 -1.95813319e-03 -1.72402838e-03
      -2.22576433e-03 -1.33245694e-03 3.27694556e-03 1.77156879e-03
      7.44090066e-04 2.30994367e-04 5.92085999e-04 6.22281077e-05
      3.75911099e-04 6.44055079e-04 3.99615662e-03 8.81118176e-04
      -9.01776715e-04 -1.50775071e-03 -1.08573714e-03 -1.34763264e-04
      -2.61162920e-03 -7.83219293e-04 5.93549572e-04 8.11134581e-04
      1.27532717e-03 3.80096579e-04 -2.94960482e-04 2.30929130e-04
      1.42685068e-03 -1.88075297e-04 -3.96805466e-04 -2.50833528e-03
      -1.00528426e-03 -1.21386640e-03 -1.18787971e-03 -3.83028644e-04
      -6.98867720e-04 1.78616040e-03 1.78168746e-04 1.16704893e-03
      -5.83714747e-04 -1.03005336e-03 4.38260962e-04 -3.84818937e-04
      1.03415063e-04 4.98317881e-04 1.38591975e-03 -1.51258486e-03
      5.52071782e-04 -4.77294700e-04 9.44668194e-04 3.53838754e-04
      -2.51918333e-04 -7.13013287e-04 9.45228268e-04 1.44903990e-03
      -1.14367506e-03 2.72543239e-03 1.78270868e-03 1.23849965e-03
      2.42655259e-03 -1.66998780e-03 6.04954432e-04 1.19778316e-03
      4.07893164e-03 3.37376748e-03 7.71076418e-04 2.33511836e-03
      4.64221928e-03 -7.80887727e-04 -1.22311257e-03 -1.13800063e-03
      -1.57183444e-03 -2.77237035e-03 -2.52445549e-04 -1.27982453e-03
      9.01704479e-04 3.33254272e-03 2.07865518e-03 4.89328639e-04
      1.19150360e-03 2.33883271e-03 4.27351473e-03 1.14383537e-03
      -1.19760679e-03 2.89867283e-04 3.43199028e-03 2.71574431e-03
      -6.15438854e-04 -2.75691855e-03 -8.04291980e-04 -3.28552863e-03
      -3.86464666e-03 -3.76602774e-03 -1.29218551e-03 1.98583677e-03
      2.02168897e-03 1.44845829e-03 4.09308006e-04 2.54113344e-04
      2.38027744e-04 1.38035233e-04 1.23368332e-03 1.76600914e-03
      5.41185588e-03 9.72025504e-04 3.77359480e-04 8.96706595e-04
      -8.05213000e-04 2.65995332e-04 -2.79055419e-03 -2.41835555e-03
      -3.49421258e-04 1.92876766e-03 2.08209828e-03 1.95389800e-03
      9.17058933e-05 1.14889594e-03 2.15013372e-03 1.10462192e-03
      -1.66707192e-04 -1.13052269e-03 4.19289386e-03 1.53928436e-03
      9.22335545e-04 -7.67283665e-04 -2.38713808e-03 1.61266676e-03
      1.85872399e-04 -2.74753850e-03 -8.45858944e-04 8.17638240e-04
      -7.75503169e-04 -1.80464573e-04 6.11088471e-04 1.03356724e-03
      3.80423968e-04 -1.51798059e-03 2.91003234e-04 1.53563777e-03
      1.54730398e-03 -1.49149529e-03 2.35397136e-04 -8.52812082e-04
      2.66295904e-03 1.51538150e-03 -8.12930521e-04 1.96518679e-03
      3.04877455e-03 -2.48514523e-04 -1.03203789e-03 3.40139639e-04
      -9.39624006e-05 -8.86742841e-04 1.18146965e-03 -5.73836034e-04
      -1.60842523e-04 1.34766742e-03 -4.65273071e-04 5.57973806e-04
      -8.32999067e-04 -9.40139871e-04 1.67476560e-03 2.01456738e-03
      -3.14154568e-05 1.09270390e-03 2.95175868e-03 -1.09581603e-03
      2.17982032e-03 8.21927388e-04 7.48132181e-04 2.25120969e-03
      3.85838863e-03 1.27513730e-03 -7.13190122e-04 -9.94473463e-04
      2.92510493e-03 3.87456530e-04 1.63587611e-04 -1.96306990e-03
      -8.78574210e-04 -7.97346642e-04 -2.22584186e-03 -4.56605712e-03
      -3.60140111e-03 3.30867741e-04 1.00933341e-03 -3.52147035e-04
      2.44654040e-03 5.03327046e-03 1.44831033e-03 2.30729929e-03
      1.23527215e-03 1.69285526e-03 2.71133636e-03 -1.27008895e-03
      -3.58372112e-03 -1.53408770e-03 1.84593501e-03 -3.33878183e-04
      -1.14042348e-04 -3.01531260e-03 -1.70441845e-03 -1.53544359e-03
      1.33614358e-03 1.37604598e-03 9.60510282e-04 3.75637785e-03
      3.88368359e-03 5.87824965e-04 -1.54120894e-03 -3.02057667e-03
      5.81489061e-04 -2.62365240e-04 1.87430682e-03 -4.09151049e-04
      -7.56214897e-04 -9.41202670e-05 1.12276280e-03 -3.06251296e-03
      -3.58436164e-03 -1.07074692e-03 7.22263125e-04 -1.24305530e-04
      1.92350347e-03 4.95082606e-03 2.81909737e-03 1.99676142e-03
      2.79577420e-04 1.42127462e-03 1.76051131e-03 4.08618274e-04
      2.22124741e-03 3.11913481e-03 5.15835942e-04 -2.31314916e-03
      -1.15664897e-03 -6.04638015e-04 2.31313333e-03 5.15921332e-04
      5.55132749e-04 1.07246696e-03 -9.12805437e-04 -1.65661413e-03
      5.76946652e-04 5.62631467e-04 -6.41540915e-04 -4.97765213e-05
      -3.20860418e-04 -7.88606936e-04 -1.80950353e-03 -9.79912817e-04
      2.04360415e-03 1.78675912e-03 -9.02792905e-04 -6.74234354e-04
      3.36005585e-04 -8.07331351e-04 1.86443841e-03 3.56636709e-03
      6.41133171e-04 -7.22759229e-04 -1.55050028e-03 -9.05380584e-04
      -3.65223794e-04 6.13154960e-04 1.29414082e-03 1.74721717e-04
      4.13444126e-03 1.11832598e-03 1.67498831e-03 1.05050323e-03
      -1.30505557e-03 9.39443591e-04 -1.09657960e-03 -8.77206796e-04
      6.31879666e-04 -4.95847431e-04 2.14164238e-03 3.57369380e-03
      3.14052193e-03 1.94668164e-03 3.68771929e-04 1.42561283e-03
      2.53978372e-03 -2.46753916e-03 -4.74376045e-03 -9.46705695e-04
      1.92552910e-03 1.08743797e-03 8.50034063e-04 -1.59104459e-03
      1.21779437e-03 2.34140767e-04 3.00147629e-04 2.78868509e-04
      2.25785375e-03 2.04156921e-03 1.91423739e-03 -4.51581145e-05
      -2.49139775e-05 -5.55575883e-04 7.36510905e-04 -8.27474403e-04
      -3.26571823e-03 -1.71816407e-03 -4.03378712e-04 -8.91845208e-04
      -2.30251788e-03 -6.46648929e-04 2.50532496e-04 -7.29764215e-05
      -1.30960089e-03 -2.03067553e-03 3.46541463e-04 2.58358382e-03
      3.14189843e-03 -4.87018871e-04 7.16219540e-04 2.29398976e-03
      2.65684794e-03 -1.58853375e-03 -1.70490844e-03 2.07132241e-03
      1.71834545e-03 -1.49920071e-03 -1.80988386e-03 3.75409902e-04
      9.05089022e-04 2.07425514e-03 6.67143206e-04 4.04147249e-06
      8.83556088e-04 3.55897093e-04 1.39014702e-03 -7.39540963e-04
      1.82350003e-03 5.41969028e-04 1.31511840e-03 -4.99208982e-04
      -1.86446495e-03 -9.48623128e-05 3.04623944e-04 -1.85689027e-03
      -1.30135717e-03 1.11934496e-03 -2.35111889e-04 7.77065579e-04
      -1.87478459e-03 -8.27588301e-05 1.11065747e-03 1.23142009e-03
      -5.23444091e-04 -7.61684438e-04 -1.85455734e-04 6.47082517e-04
      1.91030686e-03 -1.10327639e-03 2.51539866e-03 5.23929077e-04
      1.18162076e-03 1.90781790e-03 -7.16611277e-04 3.90686590e-04
      -2.45066913e-04 1.71342783e-03 -3.88315908e-04 -7.93455169e-04
      1.23674783e-03 5.34457286e-05 -4.21159115e-04 -7.36880640e-04
      8.94031618e-05 7.90287100e-04 1.07057660e-03 -1.46993159e-04
      -9.02201748e-04 -7.69989681e-04 -2.18094283e-04 -1.72010378e-03
      -1.87493768e-03 -8.50682263e-05 -3.81004123e-04 1.57484203e-04
      1.26809126e-03 1.08397647e-03 2.49803229e-03 2.61028251e-03
      2.39067012e-03 1.42255478e-04 -9.24452434e-06 -9.50507820e-04
      7.54047767e-04 3.12827353e-04 -3.15972138e-04 1.28909363e-03
      1.36612332e-03 6.84303290e-04 -1.11758185e-03 -1.16818305e-03
      -2.31597107e-03 4.27948806e-04 -1.49895946e-04 1.02256646e-03
      3.50143597e-03 4.85837925e-04 6.01513544e-04 6.36626442e-04
      1.42105957e-04 -9.43035353e-04 -1.92112173e-04 -5.21875161e-04
      -2.38088868e-03 1.88211480e-03 4.03182209e-03 1.06127840e-03
      -1.11598836e-03 -2.57784923e-05 -3.72884143e-03 -1.12082984e-03
      1.02261943e-03 1.25949155e-04 1.10585813e-03 1.51165249e-03
      2.49782880e-03 6.13727607e-04 1.43784087e-03 -1.89935870e-03
      1.23683410e-03 3.53749230e-04 -1.48919574e-03 -1.05858175e-03
      1.09753228e-05 2.69192707e-04 -1.96747272e-03 -7.04485792e-05
      -2.32698140e-03 1.33738082e-04 5.27842960e-04 -2.10031774e-03
      -4.94867796e-04 3.02076293e-03 3.58586502e-03 2.05055950e-03
      5.00272959e-04 -2.02881568e-03 -9.58659861e-04 1.37315888e-03
      -3.52597144e-03 -3.99080059e-03 1.61566604e-05 2.63305876e-04
      -9.89363645e-04 -1.05125415e-04 -7.53592874e-04 2.94427795e-04
      1.31649815e-03 6.93285401e-05 7.08045554e-04 2.87545146e-04
      3.48262780e-04 -9.60114819e-04 2.95499398e-04 -6.79322344e-04
      -9.29794565e-04 1.40583841e-03 2.37789893e-04 2.46599317e-04
      -5.54568251e-04 -5.17759414e-04 -9.76870069e-04 -1.00418169e-03
      -1.29402522e-03 -2.37918706e-04 -5.34814957e-04 -3.13529256e-03
      -1.35422905e-03 1.10609923e-03 4.95926419e-04 1.00996203e-05
      3.18093604e-04 3.69482645e-04 -5.82774555e-05 -1.65259046e-03
      -2.08032085e-03 -8.55936378e-04 1.06097141e-03 1.93242135e-03
      1.24851149e-03 -4.35705646e-04 -1.21127756e-03 -1.64089666e-03
      2.64386809e-03 1.79861113e-03 2.91205267e-03 4.99195140e-03
      -1.12787087e-03 -1.69464538e-03 2.46297452e-03 4.49216808e-04
      3.69791989e-03 7.61596239e-05 2.62636429e-04 1.23550952e-03
      1.62261794e-03 -2.97886203e-03 -4.34924290e-03 4.96164314e-04
      1.61403950e-05 1.84141612e-03 3.09033319e-03 9.53836206e-05
      1.59156031e-03 4.80992952e-03 9.65123123e-04 1.66093500e-03
      1.48025935e-03 -2.50039739e-04 1.44857424e-03 7.55005691e-04
      3.43887485e-04 -4.60806274e-04 3.25411349e-03 -3.63126327e-03
      -4.50352905e-03 -1.20863703e-03 -2.08004145e-03 1.13463053e-03
      2.47152150e-03 9.49412584e-04 9.80659155e-04 2.21920619e-03
      9.76932235e-04 -1.68359408e-03 6.63177809e-04 1.74808106e-03
      3.85212759e-03 2.48265313e-03 -3.86136095e-03 -1.06819207e-03
      -1.38608320e-03 -1.12897204e-03 -2.53402069e-03 -1.93821965e-03
      -2.04184162e-03 1.06003985e-03 3.36671947e-03 9.87151638e-04
      1.62544218e-03 2.54016113e-03 3.27207206e-04 -9.65421903e-04
      5.19027468e-04 -1.06122345e-03 9.67523607e-04 2.37204274e-03
      -6.09168026e-04 -2.96806567e-04 -7.35235590e-05 -6.95383002e-04
      -2.19381973e-03 -1.87386770e-03 -4.31615533e-03 -2.66831048e-04
      1.10962871e-03 -3.06194555e-03 8.27539421e-04 1.23340389e-04
      -1.70936604e-04 -6.91610854e-04 -6.26441964e-04 -2.19579786e-03
      8.76250851e-04 -1.21880695e-03 -2.06254027e-03 1.86063023e-03
      1.67382113e-03 7.48174614e-04 1.08416239e-03 -8.91970762e-04
      -2.65782769e-03 -1.83173735e-03 2.04278645e-03 -3.03696812e-04
      1.36439770e-03 9.70433699e-04 -3.99163488e-04 1.30193934e-04
      -1.60026818e-03 -2.82864179e-03 5.75818529e-04 -5.92213008e-04
      -1.54910691e-03 2.04043346e-04 -1.28919957e-03 5.16959524e-04
      1.93488342e-03 -1.29828358e-03 -1.98708032e-03 -1.58831337e-03
      1.64139853e-03 1.95488712e-04 3.03030596e-04 2.77043600e-03
      2.79598217e-03 2.72085238e-03 5.80813445e-04 -7.52380292e-04
      1.87121259e-04 1.31393070e-04 8.48049764e-04 2.53842620e-04
      1.11565692e-03 -1.03024626e-03 -1.21001387e-03 -1.32167980e-03
      -3.71747487e-03 -4.60540032e-04 2.28704140e-03 -2.57076987e-04
      -1.13312126e-04 2.76701641e-03 3.18466988e-03 4.23033442e-03
      6.80927304e-04 1.13747129e-03 3.12951556e-03 -2.48100929e-04
      -4.44343343e-04 -1.28915091e-03 -9.73618764e-04 -2.34492705e-03
      -5.10846789e-04 2.75223487e-04 -1.30880252e-03 9.58227727e-04
      3.79390130e-03 1.67697109e-03 1.77550351e-03 1.05491502e-03
      1.68580841e-03 3.76119890e-04 4.32824076e-04 -1.15600997e-03
      5.04455762e-04 1.55931467e-03 2.65317212e-04 1.12171110e-04
      1.06002251e-03 9.12445423e-04 -1.95813319e-03 -1.72402838e-03
      -2.22576433e-03 -1.33245694e-03 3.27694556e-03 1.77156879e-03
      7.44090066e-04 2.30994367e-04 5.92085999e-04 6.22281077e-05
      3.75911099e-04 6.44055079e-04 3.99615662e-03 8.81118176e-04
      -9.01776715e-04 -1.50775071e-03 -1.08573714e-03 -1.34763264e-04
      -2.61162920e-03 -7.83219293e-04 5.93549572e-04 8.11134581e-04
      1.27532717e-03 3.80096579e-04 -2.94960482e-04 2.30929130e-04
      1.42685068e-03 -1.88075297e-04 -3.96805466e-04 -2.50833528e-03
      -1.00528426e-03 -1.21386640e-03 -1.18787971e-03 -3.83028644e-04
      -6.98867720e-04 1.78616040e-03 1.78168746e-04 1.16704893e-03
      -5.83714747e-04 -1.03005336e-03 4.38260962e-04 -3.84818937e-04
      1.03415063e-04 4.98317881e-04 1.38591975e-03 -1.51258486e-03
      5.52071782e-04 -4.77294700e-04 9.44668194e-04 3.53838754e-04
      -2.51918333e-04 -7.13013287e-04 9.45228268e-04 1.44903990e-03
      -1.14367506e-03 2.72543239e-03 1.78270868e-03 1.23849965e-03
      2.42655259e-03 -1.66998780e-03 6.04954432e-04 1.19778316e-03
      4.07893164e-03 3.37376748e-03 7.71076418e-04 2.33511836e-03
      4.64221928e-03 -7.80887727e-04 -1.22311257e-03 -1.13800063e-03
      -1.57183444e-03 -2.77237035e-03 -2.52445549e-04 -1.27982453e-03
      9.01704479e-04 3.33254272e-03 2.07865518e-03 4.89328639e-04
      1.19150360e-03 2.33883271e-03 4.27351473e-03 1.14383537e-03
      -1.19760679e-03 2.89867283e-04 3.43199028e-03 2.71574431e-03
      -6.15438854e-04 -2.75691855e-03 -8.04291980e-04 -3.28552863e-03
      -3.86464666e-03 -3.76602774e-03 -1.29218551e-03 1.98583677e-03
      2.02168897e-03 1.44845829e-03 4.09308006e-04 2.54113344e-04
      2.38027744e-04 1.38035233e-04 1.23368332e-03 1.76600914e-03
      5.41185588e-03 9.72025504e-04 3.77359480e-04 8.96706595e-04
      -8.05213000e-04 2.65995332e-04 -2.79055419e-03 -2.41835555e-03
      -3.49421258e-04 1.92876766e-03 2.08209828e-03 1.95389800e-03
      9.17058933e-05 1.14889594e-03 2.15013372e-03 1.10462192e-03
      -1.66707192e-04 -1.13052269e-03 4.19289386e-03 1.53928436e-03
      9.22335545e-04 -7.67283665e-04 -2.38713808e-03 1.61266676e-03
      1.85872399e-04 -2.74753850e-03 -8.45858944e-04 8.17638240e-04
      -7.75503169e-04 -1.80464573e-04 6.11088471e-04 1.03356724e-03
      3.80423968e-04 -1.51798059e-03 2.91003234e-04 1.53563777e-03
      1.54730398e-03 -1.49149529e-03 2.35397136e-04 -8.52812082e-04
      2.66295904e-03 1.51538150e-03 -8.12930521e-04 1.96518679e-03
      3.04877455e-03 -2.48514523e-04 -1.03203789e-03 3.40139639e-04
      -9.39624006e-05 -8.86742841e-04 1.18146965e-03 -5.73836034e-04
      -1.60842523e-04 1.34766742e-03 -4.65273071e-04 5.57973806e-04
      -8.32999067e-04 -9.40139871e-04 1.67476560e-03 2.01456738e-03
      -3.14154568e-05 1.09270390e-03 2.95175868e-03 -1.09581603e-03
      2.17982032e-03 8.21927388e-04 7.48132181e-04 2.25120969e-03
      3.85838863e-03 1.27513730e-03 -7.13190122e-04 -9.94473463e-04
      2.92510493e-03 3.87456530e-04 1.63587611e-04 -1.96306990e-03
      -8.78574210e-04 -7.97346642e-04 -2.22584186e-03 -4.56605712e-03
      -3.60140111e-03 3.30867741e-04 1.00933341e-03 -3.52147035e-04
      2.44654040e-03 5.03327046e-03 1.44831033e-03 2.30729929e-03
      1.23527215e-03 1.69285526e-03 2.71133636e-03 -1.27008895e-03
      -3.58372112e-03 -1.53408770e-03 1.84593501e-03 -3.33878183e-04
      -1.14042348e-04 -3.01531260e-03 -1.70441845e-03 -1.53544359e-03
      1.33614358e-03 1.37604598e-03 9.60510282e-04 3.75637785e-03
      3.88368359e-03 5.87824965e-04 -1.54120894e-03 -3.02057667e-03
      5.81489061e-04 -2.62365240e-04 1.87430682e-03 -4.09151049e-04
      -7.56214897e-04 -9.41202670e-05 1.12276280e-03 -3.06251296e-03
      -3.58436164e-03 -1.07074692e-03 7.22263125e-04 -1.24305530e-04
      1.92350347e-03 4.95082606e-03 2.81909737e-03 1.99676142e-03
      2.79577420e-04 1.42127462e-03 1.76051131e-03 4.08618274e-04
      2.22124741e-03 3.11913481e-03 5.15835942e-04 -2.31314916e-03
      -1.15664897e-03 -6.04638015e-04 2.31313333e-03 5.15921332e-04
      5.55132749e-04 1.07246696e-03 -9.12805437e-04 -1.65661413e-03
      5.76946652e-04 5.62631467e-04 -6.41540915e-04 -4.97765213e-05
      -3.20860418e-04 -7.88606936e-04 -1.80950353e-03 -9.79912817e-04
      2.04360415e-03 1.78675912e-03 -9.02792905e-04 -6.74234354e-04
      3.36005585e-04 -8.07331351e-04 1.86443841e-03 3.56636709e-03
      6.41133171e-04 -7.22759229e-04 -1.55050028e-03 -9.05380584e-04
      -3.65223794e-04 6.13154960e-04 1.29414082e-03 1.74721717e-04
      4.13444126e-03 1.11832598e-03 1.67498831e-03 1.05050323e-03
      -1.30505557e-03 9.39443591e-04 -1.09657960e-03 -8.77206796e-04
      6.31879666e-04 -4.95847431e-04 2.14164238e-03 3.57369380e-03
      3.14052193e-03 1.94668164e-03 3.68771929e-04 1.42561283e-03
      2.53978372e-03 -2.46753916e-03 -4.74376045e-03 -9.46705695e-04
      1.92552910e-03 1.08743797e-03 8.50034063e-04 -1.59104459e-03
      1.21779437e-03 2.34140767e-04 3.00147629e-04 2.78868509e-04
      2.25785375e-03 2.04156921e-03 1.91423739e-03 -4.51581145e-05
      -2.49139775e-05 -5.55575883e-04 7.36510905e-04 -8.27474403e-04
      -3.26571823e-03 -1.71816407e-03 -4.03378712e-04 -8.91845208e-04
      -2.30251788e-03 -6.46648929e-04 2.50532496e-04 -7.29764215e-05
      -1.30960089e-03 -2.03067553e-03 3.46541463e-04 2.58358382e-03
      3.14189843e-03 -4.87018871e-04 7.16219540e-04 2.29398976e-03
      2.65684794e-03 -1.58853375e-03 -1.70490844e-03 2.07132241e-03
      1.71834545e-03 -1.49920071e-03 -1.80988386e-03 3.75409902e-04
      9.05089022e-04 2.07425514e-03 6.67143206e-04 4.04147249e-06
      8.83556088e-04 3.55897093e-04 1.39014702e-03 -7.39540963e-04
      1.82350003e-03 5.41969028e-04 1.31511840e-03 -4.99208982e-04
      -1.86446495e-03 -9.48623128e-05 3.04623944e-04 -1.85689027e-03
      -1.30135717e-03 1.11934496e-03 -2.35111889e-04 7.77065579e-04
      -1.87478459e-03 -8.27588301e-05 1.11065747e-03 1.23142009e-03
      -5.23444091e-04 -7.61684438e-04 -1.85455734e-04 6.47082517e-04
      1.91030686e-03 -1.10327639e-03 2.51539866e-03 5.23929077e-04
      1.18162076e-03 1.90781790e-03 -7.16611277e-04 3.90686590e-04
      -2.45066913e-04 1.71342783e-03 -3.88315908e-04 -7.93455169e-04
      1.23674783e-03 5.34457286e-05 -4.21159115e-04 -7.36880640e-04
      8.94031618e-05 7.90287100e-04 1.07057660e-03 -1.46993159e-04
      -9.02201748e-04 -7.69989681e-04 -2.18094283e-04 -1.72010378e-03
      -1.87493768e-03 -8.50682263e-05 -3.81004123e-04 1.57484203e-04
      1.26809126e-03 1.08397647e-03 2.49803229e-03 2.61028251e-03
      2.39067012e-03 1.42255478e-04 -9.24452434e-06 -9.50507820e-04
      7.54047767e-04 3.12827353e-04 -3.15972138e-04 1.28909363e-03
      1.36612332e-03 6.84303290e-04 -1.11758185e-03 -1.16818305e-03
      -2.31597107e-03 4.27948806e-04 -1.49895946e-04 1.02256646e-03
      3.50143597e-03 4.85837925e-04 6.01513544e-04 6.36626442e-04
      1.42105957e-04 -9.43035353e-04 -1.92112173e-04 -5.21875161e-04
      -2.38088868e-03 1.88211480e-03 4.03182209e-03 1.06127840e-03
      -1.11598836e-03 -2.57784923e-05 -3.72884143e-03 -1.12082984e-03
      1.02261943e-03 1.25949155e-04 1.10585813e-03 1.51165249e-03
      2.49782880e-03 6.13727607e-04 1.43784087e-03 -1.89935870e-03
      1.23683410e-03 3.53749230e-04 -1.48919574e-03 -1.05858175e-03
      1.09753228e-05 2.69192707e-04 -1.96747272e-03 -7.04485792e-05
      -2.32698140e-03 1.33738082e-04 5.27842960e-04 -2.10031774e-03
      -4.94867796e-04 3.02076293e-03 3.58586502e-03 2.05055950e-03
      5.00272959e-04 -2.02881568e-03 -9.58659861e-04 1.37315888e-03
      -3.52597144e-03 -3.99080059e-03 1.61566604e-05 2.63305876e-04
      -9.89363645e-04 -1.05125415e-04 -7.53592874e-04 2.94427795e-04
      1.31649815e-03 6.93285401e-05 7.08045554e-04 2.87545146e-04
      3.48262780e-04 -9.60114819e-04 2.95499398e-04 -6.79322344e-04
      -9.29794565e-04 1.40583841e-03 2.37789893e-04 2.46599317e-04
      -5.54568251e-04 -5.17759414e-04 -9.76870069e-04 -1.00418169e-03
      -1.29402522e-03 -2.37918706e-04 -5.34814957e-04 -3.13529256e-03
      -1.35422905e-03 1.10609923e-03 4.95926419e-04 1.00996203e-05
      3.18093604e-04 3.69482645e-04 -5.82774555e-05 -1.65259046e-03
      -2.08032085e-03 -8.55936378e-04 1.06097141e-03 1.93242135e-03
      1.24851149e-03 -4.35705646e-04 -1.21127756e-03 -1.64089666e-03
      1.91723788e-03 3.02371569e-03 4.44771443e-03 2.70208367e-03
      9.87018808e-04 -6.63807965e-04 -1.09783810e-04 -5.30939666e-04
      -1.77978654e-03 1.47429889e-03 -7.72313797e-04 2.44377879e-03
      4.10610856e-03 -3.88481276e-04 -2.98366928e-03 -1.12576841e-03
      -2.66502099e-03 -1.69304339e-03 2.17812555e-03 2.42555351e-03
      1.45811134e-03 3.04640690e-03 3.78143229e-03 -5.16388100e-05
      1.60755869e-03 7.70247061e-05 5.29543438e-04 3.10510804e-05
      -5.03360992e-04 1.26535504e-03 1.78669940e-03 4.62546770e-04
      -3.47441249e-03 -3.62207720e-05 -3.18660308e-03 -1.00739545e-03
      1.71102840e-03 5.33237471e-04 2.53414782e-03 3.97495274e-03
      1.02367066e-03 -3.33326869e-04 8.63690802e-04 -2.22335360e-03
      3.04121699e-04 -7.26993836e-04 -2.50384538e-03 -9.70445806e-04
      1.97132491e-03 -3.02211847e-04 -6.67547982e-04 9.41625680e-04
      -2.40821522e-04 -8.07411852e-04 1.56671309e-03 5.52126032e-04
      3.83873866e-03 1.81477237e-03 4.17123828e-03 -2.50376854e-03
      -1.99287388e-04 -3.58992955e-03 2.69266566e-05 -2.90950353e-04
      8.53326113e-04 2.48048455e-03 1.83154491e-03 2.76730605e-03
      2.51203728e-05 1.62415774e-04 -1.45746779e-03 -5.55151433e-04
      -1.54238613e-03 -3.70870787e-03 -1.64863071e-03 9.78028052e-04
      7.73960084e-04 -2.75803817e-04 1.25052768e-03 1.28070975e-03
      1.87847682e-03 -2.93402094e-03 -5.17815445e-03 -4.00179438e-03
      6.10068855e-05 2.98499712e-03 1.85362494e-03 1.65516476e-03
      1.25770248e-03 -5.75249607e-04 -2.11160234e-03 -5.63544279e-04
      9.94723756e-04 1.40290346e-03 1.24631298e-03 6.80859259e-04
      3.13792890e-03 1.99653627e-03 -4.23499703e-04 -1.57466542e-03
      -1.49925519e-03 -1.98192033e-03 -3.47584137e-04 2.37683021e-03
      4.08525666e-04 3.07167042e-03 2.04133010e-03 -2.11686071e-04
      1.64139853e-03 1.95488712e-04 3.03030596e-04 2.77043600e-03
      2.79598217e-03 2.72085238e-03 5.80813445e-04 -7.52380292e-04
      1.87121259e-04 1.31393070e-04 8.48049764e-04 2.53842620e-04
      1.11565692e-03 -1.03024626e-03 -1.21001387e-03 -1.32167980e-03
      -3.71747487e-03 -4.60540032e-04 2.28704140e-03 -2.57076987e-04
      -1.13312126e-04 2.76701641e-03 3.18466988e-03 4.23033442e-03
      6.80927304e-04 1.13747129e-03 3.12951556e-03 -2.48100929e-04
      -4.44343343e-04 -1.28915091e-03 -9.73618764e-04 -2.34492705e-03
      -5.10846789e-04 2.75223487e-04 -1.30880252e-03 9.58227727e-04
      3.79390130e-03 1.67697109e-03 1.77550351e-03 1.05491502e-03
      1.68580841e-03 3.76119890e-04 4.32824076e-04 -1.15600997e-03
      5.04455762e-04 1.55931467e-03 2.65317212e-04 1.12171110e-04
      1.06002251e-03 9.12445423e-04 -1.95813319e-03 -1.72402838e-03
      -2.22576433e-03 -1.33245694e-03 3.27694556e-03 1.77156879e-03
      7.44090066e-04 2.30994367e-04 5.92085999e-04 6.22281077e-05
      3.75911099e-04 6.44055079e-04 3.99615662e-03 8.81118176e-04
      -9.01776715e-04 -1.50775071e-03 -1.08573714e-03 -1.34763264e-04
      -2.61162920e-03 -7.83219293e-04 5.93549572e-04 8.11134581e-04
      1.27532717e-03 3.80096579e-04 -2.94960482e-04 2.30929130e-04
      1.42685068e-03 -1.88075297e-04 -3.96805466e-04 -2.50833528e-03
      -1.00528426e-03 -1.21386640e-03 -1.18787971e-03 -3.83028644e-04
      -6.98867720e-04 1.78616040e-03 1.78168746e-04 1.16704893e-03
      -5.83714747e-04 -1.03005336e-03 4.38260962e-04 -3.84818937e-04
      1.03415063e-04 4.98317881e-04 1.38591975e-03 -1.51258486e-03
      5.52071782e-04 -4.77294700e-04 9.44668194e-04 3.53838754e-04
      -2.51918333e-04 -7.13013287e-04 9.45228268e-04 1.44903990e-03
      -1.14367506e-03 2.72543239e-03 1.78270868e-03 1.23849965e-03
      2.42655259e-03 -1.66998780e-03 6.04954432e-04 1.19778316e-03
      4.07893164e-03 3.37376748e-03 7.71076418e-04 2.33511836e-03
      4.64221928e-03 -7.80887727e-04 -1.22311257e-03 -1.13800063e-03
      -1.57183444e-03 -2.77237035e-03 -2.52445549e-04 -1.27982453e-03
      9.01704479e-04 3.33254272e-03 2.07865518e-03 4.89328639e-04
      1.19150360e-03 2.33883271e-03 4.27351473e-03 1.14383537e-03
      -1.19760679e-03 2.89867283e-04 3.43199028e-03 2.71574431e-03
      -6.15438854e-04 -2.75691855e-03 -8.04291980e-04 -3.28552863e-03
      -3.86464666e-03 -3.76602774e-03 -1.29218551e-03 1.98583677e-03
      2.02168897e-03 1.44845829e-03 4.09308006e-04 2.54113344e-04
      2.38027744e-04 1.38035233e-04 1.23368332e-03 1.76600914e-03
      5.41185588e-03 9.72025504e-04 3.77359480e-04 8.96706595e-04
      -8.05213000e-04 2.65995332e-04 -2.79055419e-03 -2.41835555e-03
      -3.49421258e-04 1.92876766e-03 2.08209828e-03 1.95389800e-03
      9.17058933e-05 1.14889594e-03 2.15013372e-03 1.10462192e-03
      -1.66707192e-04 -1.13052269e-03 4.19289386e-03 1.53928436e-03
      9.22335545e-04 -7.67283665e-04 -2.38713808e-03 1.61266676e-03
      1.85872399e-04 -2.74753850e-03 -8.45858944e-04 8.17638240e-04
      -7.75503169e-04 -1.80464573e-04 6.11088471e-04 1.03356724e-03
      3.80423968e-04 -1.51798059e-03 2.91003234e-04 1.53563777e-03
      1.54730398e-03 -1.49149529e-03 2.35397136e-04 -8.52812082e-04
      2.66295904e-03 1.51538150e-03 -8.12930521e-04 1.96518679e-03
      3.04877455e-03 -2.48514523e-04 -1.03203789e-03 3.40139639e-04
      -9.39624006e-05 -8.86742841e-04 1.18146965e-03 -5.73836034e-04
      -1.60842523e-04 1.34766742e-03 -4.65273071e-04 5.57973806e-04
      -8.32999067e-04 -9.40139871e-04 1.67476560e-03 2.01456738e-03
      -3.14154568e-05 1.09270390e-03 2.95175868e-03 -1.09581603e-03
      2.17982032e-03 8.21927388e-04 7.48132181e-04 2.25120969e-03
      3.85838863e-03 1.27513730e-03 -7.13190122e-04 -9.94473463e-04
      2.92510493e-03 3.87456530e-04 1.63587611e-04 -1.96306990e-03
      -8.78574210e-04 -7.97346642e-04 -2.22584186e-03 -4.56605712e-03
      -3.60140111e-03 3.30867741e-04 1.00933341e-03 -3.52147035e-04
      2.44654040e-03 5.03327046e-03 1.44831033e-03 2.30729929e-03
      1.23527215e-03 1.69285526e-03 2.71133636e-03 -1.27008895e-03
      -3.58372112e-03 -1.53408770e-03 1.84593501e-03 -3.33878183e-04
      -1.14042348e-04 -3.01531260e-03 -1.70441845e-03 -1.53544359e-03
      1.33614358e-03 1.37604598e-03 9.60510282e-04 3.75637785e-03
      3.88368359e-03 5.87824965e-04 -1.54120894e-03 -3.02057667e-03
      5.81489061e-04 -2.62365240e-04 1.87430682e-03 -4.09151049e-04
      -7.56214897e-04 -9.41202670e-05 1.12276280e-03 -3.06251296e-03
      -3.58436164e-03 -1.07074692e-03 7.22263125e-04 -1.24305530e-04
      1.92350347e-03 4.95082606e-03 2.81909737e-03 1.99676142e-03
      2.79577420e-04 1.42127462e-03 1.76051131e-03 4.08618274e-04
      2.22124741e-03 3.11913481e-03 5.15835942e-04 -2.31314916e-03
      -1.15664897e-03 -6.04638015e-04 2.31313333e-03 5.15921332e-04
      5.55132749e-04 1.07246696e-03 -9.12805437e-04 -1.65661413e-03
      5.76946652e-04 5.62631467e-04 -6.41540915e-04 -4.97765213e-05
      -3.20860418e-04 -7.88606936e-04 -1.80950353e-03 -9.79912817e-04
      2.04360415e-03 1.78675912e-03 -9.02792905e-04 -6.74234354e-04
      3.36005585e-04 -8.07331351e-04 1.86443841e-03 3.56636709e-03
      6.41133171e-04 -7.22759229e-04 -1.55050028e-03 -9.05380584e-04
      -3.65223794e-04 6.13154960e-04 1.29414082e-03 1.74721717e-04
      4.13444126e-03 1.11832598e-03 1.67498831e-03 1.05050323e-03
      -1.30505557e-03 9.39443591e-04 -1.09657960e-03 -8.77206796e-04
      6.31879666e-04 -4.95847431e-04 2.14164238e-03 3.57369380e-03
      3.14052193e-03 1.94668164e-03 3.68771929e-04 1.42561283e-03
      2.53978372e-03 -2.46753916e-03 -4.74376045e-03 -9.46705695e-04
      1.92552910e-03 1.08743797e-03 8.50034063e-04 -1.59104459e-03
      1.21779437e-03 2.34140767e-04 3.00147629e-04 2.78868509e-04
      2.25785375e-03 2.04156921e-03 1.91423739e-03 -4.51581145e-05
      -2.49139775e-05 -5.55575883e-04 7.36510905e-04 -8.27474403e-04
      -3.26571823e-03 -1.71816407e-03 -4.03378712e-04 -8.91845208e-04
      -2.30251788e-03 -6.46648929e-04 2.50532496e-04 -7.29764215e-05
      -1.30960089e-03 -2.03067553e-03 3.46541463e-04 2.58358382e-03
      3.14189843e-03 -4.87018871e-04 7.16219540e-04 2.29398976e-03
      2.65684794e-03 -1.58853375e-03 -1.70490844e-03 2.07132241e-03
      1.71834545e-03 -1.49920071e-03 -1.80988386e-03 3.75409902e-04
      9.05089022e-04 2.07425514e-03 6.67143206e-04 4.04147249e-06
      8.83556088e-04 3.55897093e-04 1.39014702e-03 -7.39540963e-04
      1.82350003e-03 5.41969028e-04 1.31511840e-03 -4.99208982e-04
      -1.86446495e-03 -9.48623128e-05 3.04623944e-04 -1.85689027e-03
      -1.30135717e-03 1.11934496e-03 -2.35111889e-04 7.77065579e-04
      -1.87478459e-03 -8.27588301e-05 1.11065747e-03 1.23142009e-03
      -5.23444091e-04 -7.61684438e-04 -1.85455734e-04 6.47082517e-04
      1.91030686e-03 -1.10327639e-03 2.51539866e-03 5.23929077e-04
      1.18162076e-03 1.90781790e-03 -7.16611277e-04 3.90686590e-04
      -2.45066913e-04 1.71342783e-03 -3.88315908e-04 -7.93455169e-04
      1.23674783e-03 5.34457286e-05 -4.21159115e-04 -7.36880640e-04
      8.94031618e-05 7.90287100e-04 1.07057660e-03 -1.46993159e-04
      -9.02201748e-04 -7.69989681e-04 -2.18094283e-04 -1.72010378e-03
      -1.87493768e-03 -8.50682263e-05 -3.81004123e-04 1.57484203e-04
      1.26809126e-03 1.08397647e-03 2.49803229e-03 2.61028251e-03
      2.39067012e-03 1.42255478e-04 -9.24452434e-06 -9.50507820e-04
      7.54047767e-04 3.12827353e-04 -3.15972138e-04 1.28909363e-03
      1.36612332e-03 6.84303290e-04 -1.11758185e-03 -1.16818305e-03
      -2.31597107e-03 4.27948806e-04 -1.49895946e-04 1.02256646e-03
      3.50143597e-03 4.85837925e-04 6.01513544e-04 6.36626442e-04
      1.42105957e-04 -9.43035353e-04 -1.92112173e-04 -5.21875161e-04
      -2.38088868e-03 1.88211480e-03 4.03182209e-03 1.06127840e-03
      -1.11598836e-03 -2.57784923e-05 -3.72884143e-03 -1.12082984e-03
      1.02261943e-03 1.25949155e-04 1.10585813e-03 1.51165249e-03
      2.49782880e-03 6.13727607e-04 1.43784087e-03 -1.89935870e-03
      1.23683410e-03 3.53749230e-04 -1.48919574e-03 -1.05858175e-03
      1.09753228e-05 2.69192707e-04 -1.96747272e-03 -7.04485792e-05
      -2.32698140e-03 1.33738082e-04 5.27842960e-04 -2.10031774e-03
      -4.94867796e-04 3.02076293e-03 3.58586502e-03 2.05055950e-03
      5.00272959e-04 -2.02881568e-03 -9.58659861e-04 1.37315888e-03
      -3.52597144e-03 -3.99080059e-03 1.61566604e-05 2.63305876e-04
      -9.89363645e-04 -1.05125415e-04 -7.53592874e-04 2.94427795e-04
      1.31649815e-03 6.93285401e-05 7.08045554e-04 2.87545146e-04
      3.48262780e-04 -9.60114819e-04 2.95499398e-04 -6.79322344e-04
      -9.29794565e-04 1.40583841e-03 2.37789893e-04 2.46599317e-04
      -5.54568251e-04 -5.17759414e-04 -9.76870069e-04 -1.00418169e-03
      -1.29402522e-03 -2.37918706e-04 -5.34814957e-04 -3.13529256e-03
      -1.35422905e-03 1.10609923e-03 4.95926419e-04 1.00996203e-05
      3.18093604e-04 3.69482645e-04 -5.82774555e-05 -1.65259046e-03
      -2.08032085e-03 -8.55936378e-04 1.06097141e-03 1.93242135e-03
      1.24851149e-03 -4.35705646e-04 -1.21127756e-03 -1.64089666e-03
      1.91723788e-03 3.02371569e-03 4.44771443e-03 2.70208367e-03
      9.87018808e-04 -6.63807965e-04 -1.09783810e-04 -5.30939666e-04
      -1.77978654e-03 1.47429889e-03 -7.72313797e-04 2.44377879e-03
      4.10610856e-03 -3.88481276e-04 -2.98366928e-03 -1.12576841e-03
      -2.66502099e-03 -1.69304339e-03 2.17812555e-03 2.42555351e-03
      1.45811134e-03 3.04640690e-03 3.78143229e-03 -5.16388100e-05
      1.60755869e-03 7.70247061e-05 5.29543438e-04 3.10510804e-05
      -5.03360992e-04 1.26535504e-03 1.78669940e-03 4.62546770e-04
      -3.47441249e-03 -3.62207720e-05 -3.18660308e-03 -1.00739545e-03
      1.71102840e-03 5.33237471e-04 2.53414782e-03 3.97495274e-03
      1.02367066e-03 -3.33326869e-04 8.63690802e-04 -2.22335360e-03
      3.04121699e-04 -7.26993836e-04 -2.50384538e-03 -9.70445806e-04
      1.97132491e-03 -3.02211847e-04 -6.67547982e-04 9.41625680e-04
      -2.40821522e-04 -8.07411852e-04 1.56671309e-03 5.52126032e-04
      3.83873866e-03 1.81477237e-03 4.17123828e-03 -2.50376854e-03
      -1.99287388e-04 -3.58992955e-03 2.69266566e-05 -2.90950353e-04
      8.53326113e-04 2.48048455e-03 1.83154491e-03 2.76730605e-03
      2.51203728e-05 1.62415774e-04 -1.45746779e-03 -5.55151433e-04
      -1.54238613e-03 -3.70870787e-03 -1.64863071e-03 9.78028052e-04
      7.73960084e-04 -2.75803817e-04 1.25052768e-03 1.28070975e-03
      1.87847682e-03 -2.93402094e-03 -5.17815445e-03 -4.00179438e-03
      6.10068855e-05 2.98499712e-03 1.85362494e-03 1.65516476e-03
      1.25770248e-03 -5.75249607e-04 -2.11160234e-03 -5.63544279e-04
      9.94723756e-04 1.40290346e-03 1.24631298e-03 6.80859259e-04
      3.13792890e-03 1.99653627e-03 -4.23499703e-04 -1.57466542e-03
      -1.49925519e-03 -1.98192033e-03 -3.47584137e-04 2.37683021e-03
      4.08525666e-04 3.07167042e-03 2.04133010e-03 -2.11686071e-04
      2.47867452e-03 6.81065372e-04 9.11407114e-04 9.32694762e-04
      3.20072728e-03 -1.53158407e-03 6.37919409e-04 1.00979453e-03
      3.20329098e-03 1.16313437e-04 -3.62993684e-03 -1.30733440e-03
      -4.79862443e-04 1.50801335e-03 -3.74493212e-03 -1.25979318e-03
      -2.45876564e-03 1.20241475e-05 3.12887039e-03 -1.03663083e-03
      1.19182712e-03 -3.18636955e-03 -3.56907665e-04 1.54188645e-04
      3.29290470e-03 1.49992108e-03 3.39177856e-03 -2.65708019e-04
      -2.47113197e-03 -2.54580402e-03 -3.86101822e-03 6.67066430e-04
      -1.91782217e-03 7.22458528e-04 -9.49119218e-04 9.83775011e-04
      -8.88755021e-05 -1.37242395e-03 1.29810837e-03 7.32776825e-04
      3.84914619e-03 -3.11611826e-03 -1.35395781e-03 -3.41611041e-04
      2.38433830e-03 -1.53637910e-03 -1.43107423e-03 3.38592770e-04
      -1.66367437e-03 2.68799695e-03 7.68393220e-05 3.34264187e-04
      4.25128324e-04 3.40084225e-04 1.30964350e-03 -9.86209372e-04
      -5.54227969e-04 -1.39047997e-03 8.72620731e-04 -2.32817209e-03
      -1.65150981e-04 1.46761059e-03 3.86484223e-03 -6.38347527e-04
      -3.08663840e-03 -1.46737671e-03 -3.53424391e-03 6.09453768e-04
      -1.66750979e-03 8.34781094e-04 2.73989979e-03 2.77008908e-03
      -2.52388162e-03 -4.27463412e-04 1.22191501e-03 1.45932674e-04
      2.99104745e-03 1.16027892e-03 2.60643801e-03 2.40279781e-03
      -5.08219702e-04 -1.88832078e-03 -7.85369775e-04 -2.49454344e-04
      -1.28466857e-03 2.67143617e-03 -8.64158210e-04 1.78083451e-03
      1.78599521e-03 5.09938167e-04 -7.55966001e-04 -2.07816437e-03
      -1.00260251e-03 -1.00667740e-03 2.21279217e-03 -1.38794270e-03
      1.39149884e-03 2.26152921e-03 2.30777077e-03 -1.47154822e-03
      -3.10202106e-03 -2.35849922e-03 -1.54483551e-03 2.18903366e-03
      -1.62745267e-03 -2.82107666e-03 -3.91039619e-04 7.62935379e-04
      2.42655259e-03 -1.66998780e-03 6.04954432e-04 1.19778316e-03
      4.07893164e-03 3.37376748e-03 7.71076418e-04 2.33511836e-03
      4.64221928e-03 -7.80887727e-04 -1.22311257e-03 -1.13800063e-03
      -1.57183444e-03 -2.77237035e-03 -2.52445549e-04 -1.27982453e-03
      9.01704479e-04 3.33254272e-03 2.07865518e-03 4.89328639e-04
      1.19150360e-03 2.33883271e-03 4.27351473e-03 1.14383537e-03
      -1.19760679e-03 2.89867283e-04 3.43199028e-03 2.71574431e-03
      -6.15438854e-04 -2.75691855e-03 -8.04291980e-04 -3.28552863e-03
      -3.86464666e-03 -3.76602774e-03 -1.29218551e-03 1.98583677e-03
      2.02168897e-03 1.44845829e-03 4.09308006e-04 2.54113344e-04
      2.38027744e-04 1.38035233e-04 1.23368332e-03 1.76600914e-03
      5.41185588e-03 9.72025504e-04 3.77359480e-04 8.96706595e-04
      -8.05213000e-04 2.65995332e-04 -2.79055419e-03 -2.41835555e-03
      -3.49421258e-04 1.92876766e-03 2.08209828e-03 1.95389800e-03
      9.17058933e-05 1.14889594e-03 2.15013372e-03 1.10462192e-03
      -1.66707192e-04 -1.13052269e-03 4.19289386e-03 1.53928436e-03
      9.22335545e-04 -7.67283665e-04 -2.38713808e-03 1.61266676e-03
      1.85872399e-04 -2.74753850e-03 -8.45858944e-04 8.17638240e-04
      -7.75503169e-04 -1.80464573e-04 6.11088471e-04 1.03356724e-03
      3.80423968e-04 -1.51798059e-03 2.91003234e-04 1.53563777e-03
      1.54730398e-03 -1.49149529e-03 2.35397136e-04 -8.52812082e-04
      2.66295904e-03 1.51538150e-03 -8.12930521e-04 1.96518679e-03
      3.04877455e-03 -2.48514523e-04 -1.03203789e-03 3.40139639e-04
      -9.39624006e-05 -8.86742841e-04 1.18146965e-03 -5.73836034e-04
      -1.60842523e-04 1.34766742e-03 -4.65273071e-04 5.57973806e-04
      -8.32999067e-04 -9.40139871e-04 1.67476560e-03 2.01456738e-03
      -3.14154568e-05 1.09270390e-03 2.95175868e-03 -1.09581603e-03
      2.17982032e-03 8.21927388e-04 7.48132181e-04 2.25120969e-03
      3.85838863e-03 1.27513730e-03 -7.13190122e-04 -9.94473463e-04
      2.92510493e-03 3.87456530e-04 1.63587611e-04 -1.96306990e-03
      -8.78574210e-04 -7.97346642e-04 -2.22584186e-03 -4.56605712e-03
      -3.60140111e-03 3.30867741e-04 1.00933341e-03 -3.52147035e-04
      2.44654040e-03 5.03327046e-03 1.44831033e-03 2.30729929e-03
      1.23527215e-03 1.69285526e-03 2.71133636e-03 -1.27008895e-03
      -3.58372112e-03 -1.53408770e-03 1.84593501e-03 -3.33878183e-04
      -1.14042348e-04 -3.01531260e-03 -1.70441845e-03 -1.53544359e-03
      1.33614358e-03 1.37604598e-03 9.60510282e-04 3.75637785e-03
      3.88368359e-03 5.87824965e-04 -1.54120894e-03 -3.02057667e-03
      5.81489061e-04 -2.62365240e-04 1.87430682e-03 -4.09151049e-04
      -7.56214897e-04 -9.41202670e-05 1.12276280e-03 -3.06251296e-03
      -3.58436164e-03 -1.07074692e-03 7.22263125e-04 -1.24305530e-04
      1.92350347e-03 4.95082606e-03 2.81909737e-03 1.99676142e-03
      2.79577420e-04 1.42127462e-03 1.76051131e-03 4.08618274e-04
      2.22124741e-03 3.11913481e-03 5.15835942e-04 -2.31314916e-03
      -1.15664897e-03 -6.04638015e-04 2.31313333e-03 5.15921332e-04
      5.55132749e-04 1.07246696e-03 -9.12805437e-04 -1.65661413e-03
      5.76946652e-04 5.62631467e-04 -6.41540915e-04 -4.97765213e-05
      -3.20860418e-04 -7.88606936e-04 -1.80950353e-03 -9.79912817e-04
      2.04360415e-03 1.78675912e-03 -9.02792905e-04 -6.74234354e-04
      3.36005585e-04 -8.07331351e-04 1.86443841e-03 3.56636709e-03
      6.41133171e-04 -7.22759229e-04 -1.55050028e-03 -9.05380584e-04
      -3.65223794e-04 6.13154960e-04 1.29414082e-03 1.74721717e-04
      4.13444126e-03 1.11832598e-03 1.67498831e-03 1.05050323e-03
      -1.30505557e-03 9.39443591e-04 -1.09657960e-03 -8.77206796e-04
      6.31879666e-04 -4.95847431e-04 2.14164238e-03 3.57369380e-03
      3.14052193e-03 1.94668164e-03 3.68771929e-04 1.42561283e-03
      2.53978372e-03 -2.46753916e-03 -4.74376045e-03 -9.46705695e-04
      1.92552910e-03 1.08743797e-03 8.50034063e-04 -1.59104459e-03
      1.21779437e-03 2.34140767e-04 3.00147629e-04 2.78868509e-04
      2.25785375e-03 2.04156921e-03 1.91423739e-03 -4.51581145e-05
      -2.49139775e-05 -5.55575883e-04 7.36510905e-04 -8.27474403e-04
      -3.26571823e-03 -1.71816407e-03 -4.03378712e-04 -8.91845208e-04
      -2.30251788e-03 -6.46648929e-04 2.50532496e-04 -7.29764215e-05
      -1.30960089e-03 -2.03067553e-03 3.46541463e-04 2.58358382e-03
      3.14189843e-03 -4.87018871e-04 7.16219540e-04 2.29398976e-03
      2.65684794e-03 -1.58853375e-03 -1.70490844e-03 2.07132241e-03
      1.71834545e-03 -1.49920071e-03 -1.80988386e-03 3.75409902e-04
      9.05089022e-04 2.07425514e-03 6.67143206e-04 4.04147249e-06
      8.83556088e-04 3.55897093e-04 1.39014702e-03 -7.39540963e-04
      1.82350003e-03 5.41969028e-04 1.31511840e-03 -4.99208982e-04
      -1.86446495e-03 -9.48623128e-05 3.04623944e-04 -1.85689027e-03
      -1.30135717e-03 1.11934496e-03 -2.35111889e-04 7.77065579e-04
      -1.87478459e-03 -8.27588301e-05 1.11065747e-03 1.23142009e-03
      -5.23444091e-04 -7.61684438e-04 -1.85455734e-04 6.47082517e-04
      1.91030686e-03 -1.10327639e-03 2.51539866e-03 5.23929077e-04
      1.18162076e-03 1.90781790e-03 -7.16611277e-04 3.90686590e-04
      -2.45066913e-04 1.71342783e-03 -3.88315908e-04 -7.93455169e-04
      1.23674783e-03 5.34457286e-05 -4.21159115e-04 -7.36880640e-04
      8.94031618e-05 7.90287100e-04 1.07057660e-03 -1.46993159e-04
      -9.02201748e-04 -7.69989681e-04 -2.18094283e-04 -1.72010378e-03
      -1.87493768e-03 -8.50682263e-05 -3.81004123e-04 1.57484203e-04
      1.26809126e-03 1.08397647e-03 2.49803229e-03 2.61028251e-03
      2.39067012e-03 1.42255478e-04 -9.24452434e-06 -9.50507820e-04
      7.54047767e-04 3.12827353e-04 -3.15972138e-04 1.28909363e-03
      1.36612332e-03 6.84303290e-04 -1.11758185e-03 -1.16818305e-03
      -2.31597107e-03 4.27948806e-04 -1.49895946e-04 1.02256646e-03
      3.50143597e-03 4.85837925e-04 6.01513544e-04 6.36626442e-04
      1.42105957e-04 -9.43035353e-04 -1.92112173e-04 -5.21875161e-04
      -2.38088868e-03 1.88211480e-03 4.03182209e-03 1.06127840e-03
      -1.11598836e-03 -2.57784923e-05 -3.72884143e-03 -1.12082984e-03
      1.02261943e-03 1.25949155e-04 1.10585813e-03 1.51165249e-03
      2.49782880e-03 6.13727607e-04 1.43784087e-03 -1.89935870e-03
      1.23683410e-03 3.53749230e-04 -1.48919574e-03 -1.05858175e-03
      1.09753228e-05 2.69192707e-04 -1.96747272e-03 -7.04485792e-05
      -2.32698140e-03 1.33738082e-04 5.27842960e-04 -2.10031774e-03
      -4.94867796e-04 3.02076293e-03 3.58586502e-03 2.05055950e-03
      5.00272959e-04 -2.02881568e-03 -9.58659861e-04 1.37315888e-03
      -3.52597144e-03 -3.99080059e-03 1.61566604e-05 2.63305876e-04
      -9.89363645e-04 -1.05125415e-04 -7.53592874e-04 2.94427795e-04
      1.31649815e-03 6.93285401e-05 7.08045554e-04 2.87545146e-04
      3.48262780e-04 -9.60114819e-04 2.95499398e-04 -6.79322344e-04
      -9.29794565e-04 1.40583841e-03 2.37789893e-04 2.46599317e-04
      -5.54568251e-04 -5.17759414e-04 -9.76870069e-04 -1.00418169e-03
      -1.29402522e-03 -2.37918706e-04 -5.34814957e-04 -3.13529256e-03
      -1.35422905e-03 1.10609923e-03 4.95926419e-04 1.00996203e-05
      3.18093604e-04 3.69482645e-04 -5.82774555e-05 -1.65259046e-03
      -2.08032085e-03 -8.55936378e-04 1.06097141e-03 1.93242135e-03
      1.24851149e-03 -4.35705646e-04 -1.21127756e-03 -1.64089666e-03
      1.91723788e-03 3.02371569e-03 4.44771443e-03 2.70208367e-03
      9.87018808e-04 -6.63807965e-04 -1.09783810e-04 -5.30939666e-04
      -1.77978654e-03 1.47429889e-03 -7.72313797e-04 2.44377879e-03
      4.10610856e-03 -3.88481276e-04 -2.98366928e-03 -1.12576841e-03
      -2.66502099e-03 -1.69304339e-03 2.17812555e-03 2.42555351e-03
      1.45811134e-03 3.04640690e-03 3.78143229e-03 -5.16388100e-05
      1.60755869e-03 7.70247061e-05 5.29543438e-04 3.10510804e-05
      -5.03360992e-04 1.26535504e-03 1.78669940e-03 4.62546770e-04
      -3.47441249e-03 -3.62207720e-05 -3.18660308e-03 -1.00739545e-03
      1.71102840e-03 5.33237471e-04 2.53414782e-03 3.97495274e-03
      1.02367066e-03 -3.33326869e-04 8.63690802e-04 -2.22335360e-03
      3.04121699e-04 -7.26993836e-04 -2.50384538e-03 -9.70445806e-04
      1.97132491e-03 -3.02211847e-04 -6.67547982e-04 9.41625680e-04
      -2.40821522e-04 -8.07411852e-04 1.56671309e-03 5.52126032e-04
      3.83873866e-03 1.81477237e-03 4.17123828e-03 -2.50376854e-03
      -1.99287388e-04 -3.58992955e-03 2.69266566e-05 -2.90950353e-04
      8.53326113e-04 2.48048455e-03 1.83154491e-03 2.76730605e-03
      2.51203728e-05 1.62415774e-04 -1.45746779e-03 -5.55151433e-04
      -1.54238613e-03 -3.70870787e-03 -1.64863071e-03 9.78028052e-04
      7.73960084e-04 -2.75803817e-04 1.25052768e-03 1.28070975e-03
      1.87847682e-03 -2.93402094e-03 -5.17815445e-03 -4.00179438e-03
      6.10068855e-05 2.98499712e-03 1.85362494e-03 1.65516476e-03
      1.25770248e-03 -5.75249607e-04 -2.11160234e-03 -5.63544279e-04
      9.94723756e-04 1.40290346e-03 1.24631298e-03 6.80859259e-04
      3.13792890e-03 1.99653627e-03 -4.23499703e-04 -1.57466542e-03
      -1.49925519e-03 -1.98192033e-03 -3.47584137e-04 2.37683021e-03
      4.08525666e-04 3.07167042e-03 2.04133010e-03 -2.11686071e-04
      2.47867452e-03 6.81065372e-04 9.11407114e-04 9.32694762e-04
      3.20072728e-03 -1.53158407e-03 6.37919409e-04 1.00979453e-03
      3.20329098e-03 1.16313437e-04 -3.62993684e-03 -1.30733440e-03
      -4.79862443e-04 1.50801335e-03 -3.74493212e-03 -1.25979318e-03
      -2.45876564e-03 1.20241475e-05 3.12887039e-03 -1.03663083e-03
      1.19182712e-03 -3.18636955e-03 -3.56907665e-04 1.54188645e-04
      3.29290470e-03 1.49992108e-03 3.39177856e-03 -2.65708019e-04
      -2.47113197e-03 -2.54580402e-03 -3.86101822e-03 6.67066430e-04
      -1.91782217e-03 7.22458528e-04 -9.49119218e-04 9.83775011e-04
